~o
<STREAMINFO> 1 36
<VECSIZE> 36<NULLD><MFCC_D_A_Z><DIAGC>
~h "models_1"
<BEGINHMM>
<NUMSTATES> 3
<STATE> 2
<NUMMIXES> 1024
<MIXTURE> 1 9.317722e-05
<MEAN> 36
 5.633873e+00 5.632280e-01 1.436254e+00 3.447584e+00 5.238799e+00 4.613513e+00 3.014546e+00 4.273220e+00 2.073953e+00 1.342965e+00 1.284445e+00 3.779471e-01 -0.000000e+00 -0.000000e+00 -0.000000e+00 -0.000000e+00 -0.000000e+00 -0.000000e+00 -0.000000e+00 -0.000000e+00 -0.000000e+00 -0.000000e+00 -0.000000e+00 -0.000000e+00 -0.000000e+00 -0.000000e+00 -0.000000e+00 -0.000000e+00 -0.000000e+00 -0.000000e+00 -0.000000e+00 -0.000000e+00 -0.000000e+00 -0.000000e+00 -0.000000e+00 -0.000000e+00
<VARIANCE> 36
 4.422064e-01 4.486770e-03 4.273340e-01 2.324552e-01 8.308139e-01 1.459303e-01 7.925565e-01 1.925150e-01 4.809746e-01 5.151505e-01 1.701931e-02 1.707112e-01 1.000000e-04 1.000000e-04 1.000000e-04 1.000000e-04 1.000000e-04 1.000000e-04 1.000000e-04 1.000000e-04 1.000000e-04 1.000000e-04 1.000000e-04 1.000000e-04 1.000000e-04 1.000000e-04 1.000000e-04 1.000000e-04 1.000000e-04 1.000000e-04 1.000000e-04 1.000000e-04 1.000000e-04 1.000000e-04 1.000000e-04 1.000000e-04
<GCONST> -1.746429e+02
<MIXTURE> 2 5.226156e-04
<MEAN> 36
 5.419584e+00 7.893342e-01 1.079159e+00 3.071026e+00 3.112862e+00 2.544174e+00 1.524726e+00 1.876484e+00 1.064496e+00 4.033904e-01 9.184865e-01 2.489127e-01 3.592268e+00 7.139625e-01 1.120030e+00 6.794630e-01 8.297178e-01 2.821179e-01 4.232106e-01 1.158392e-01 2.582699e-01 1.474418e-01 1.040192e-01 8.385867e-02 -4.870152e-01 -5.729691e-02 -7.422213e-02 -1.494619e-02 -5.582746e-02 -4.145044e-02 -7.737071e-02 -6.558298e-02 -2.004775e-02 -4.429223e-03 -5.988465e-02 -2.677776e-02
<VARIANCE> 36
 3.006584e+00 2.388418e+00 2.146364e+00 1.797544e+00 1.399222e+00 1.190838e+00 8.873897e-01 7.563677e-01 5.812331e-01 4.249159e-01 3.657642e-01 2.187098e-01 3.620639e-01 6.134165e-01 8.966507e-01 1.690188e+00 1.681834e+00 2.037867e+00 2.336087e+00 2.332103e+00 2.045640e+00 1.903496e+00 1.916664e+00 1.526546e+00 6.371380e-02 2.809322e-02 3.790743e-02 6.964500e-02 7.038521e-02 8.958526e-02 1.054869e-01 1.069884e-01 9.532240e-02 9.043498e-02 8.985581e-02 7.543849e-02
<GCONST> 3.838330e+01
<MIXTURE> 3 1.829713e-03
<MEAN> 36
 3.241645e+00 7.389357e+00 5.509414e+00 4.030472e+00 3.532611e+00 -3.666134e-01 3.219789e+00 -2.526631e+00 2.622588e+00 1.185104e+00 8.041900e-01 -2.071430e-01 1.766270e-02 3.179412e-02 -1.629191e-02 7.116889e-02 -1.635406e-02 5.059129e-02 -3.003382e-02 1.078577e-03 -4.618463e-02 -3.110182e-02 2.080850e-02 2.456921e-02 -7.697615e-03 -5.022815e-02 -1.658519e-02 -8.619785e-02 -5.889511e-03 -2.926971e-02 -9.700140e-02 1.366109e-01 -2.361858e-01 -5.298210e-02 -5.523467e-02 4.910634e-02
<VARIANCE> 36
 8.326199e+00 2.066391e+01 1.957085e+01 2.547845e+01 3.606542e+01 4.269254e+01 3.804548e+01 5.135758e+01 3.101131e+01 3.531851e+01 3.243747e+01 2.714651e+01 1.115305e-01 2.394198e-01 3.987368e-01 6.373896e-01 7.843741e-01 1.035195e+00 1.160536e+00 1.289829e+00 1.319278e+00 1.314853e+00 1.266958e+00 1.126488e+00 1.968219e-02 4.964885e-02 7.455005e-02 1.251046e-01 1.502641e-01 2.054758e-01 2.278069e-01 2.718982e-01 2.339122e-01 2.559952e-01 2.776932e-01 2.259896e-01
<GCONST> 7.887935e+01
<MIXTURE> 4 6.804377e-05
<MEAN> 36
 5.620541e+00 8.108481e-01 1.385045e+00 3.928759e+00 3.996849e+00 3.634361e+00 1.723494e+00 3.301435e+00 1.284010e+00 1.272687e+00 1.471935e+00 7.742139e-01 -2.218550e-06 -2.547748e-06 -2.305926e-06 -2.164017e-06 -1.817191e-06 -1.780310e-06 -1.598813e-06 -1.809943e-06 -1.499733e-06 -8.008066e-07 -5.103864e-07 -7.331993e-07 -4.489040e-01 -6.749966e-02 -1.182435e-01 -6.381399e-02 -1.014088e-01 -4.288531e-02 -6.341946e-02 -3.524852e-02 -3.023093e-02 -1.568424e-02 -2.569829e-02 -5.638943e-03
<VARIANCE> 36
 2.127559e+00 2.371620e+00 3.294915e+00 1.591428e+00 1.673297e+00 1.967807e+00 1.537905e+00 7.947297e-01 8.623179e-01 4.698883e-01 3.391762e-01 4.972259e-01 1.000000e-04 1.000000e-04 1.000000e-04 1.000000e-04 1.000000e-04 1.000000e-04 1.000000e-04 1.000000e-04 1.000000e-04 1.000000e-04 1.000000e-04 1.000000e-04 1.828359e-02 1.982537e-02 2.706407e-02 4.383140e-02 4.217095e-02 4.853794e-02 5.374548e-02 5.006062e-02 4.147686e-02 3.830843e-02 3.529726e-02 2.668855e-02
<GCONST> -8.255703e+01
<MIXTURE> 5 1.235467e-03
<MEAN> 36
 -2.358958e+00 1.499499e+01 8.113125e+00 -5.075372e+00 1.432692e+01 -5.854785e+00 9.526379e-01 3.069840e+00 -3.224982e+00 2.522568e+00 2.474509e-01 -1.062967e+00 3.516838e-01 -6.867884e-01 6.792527e-01 -4.244451e-01 -2.590753e-01 4.870673e-01 -5.385618e-01 1.209201e-01 -1.444274e-02 -7.905316e-02 -8.874605e-02 3.609883e-01 2.259071e-01 -6.569203e-01 -6.729250e-02 3.184532e-01 -1.044701e+00 5.872838e-01 -3.159500e-01 -4.097547e-01 2.063630e-01 -3.532127e-01 -1.179681e-01 1.426379e-01
<VARIANCE> 36
 1.174060e+01 1.795529e+01 2.227911e+01 2.998885e+01 1.811666e+01 2.943748e+01 2.781836e+01 2.647185e+01 2.413478e+01 2.676744e+01 2.103505e+01 1.811538e+01 6.509435e-01 1.682236e+00 2.249405e+00 3.210005e+00 2.485926e+00 2.646747e+00 3.329551e+00 2.558995e+00 2.550915e+00 3.038318e+00 2.531208e+00 2.139902e+00 1.066086e-01 2.096614e-01 3.040130e-01 4.254788e-01 3.624645e-01 3.974567e-01 4.142671e-01 4.155271e-01 4.260640e-01 4.728482e-01 3.753341e-01 3.492854e-01
<GCONST> 9.996807e+01
<MIXTURE> 6 1.454883e-03
<MEAN> 36
 8.802058e-01 3.917582e+00 3.072292e+00 2.867932e+00 5.457754e+00 5.955908e+00 5.962814e+00 5.499112e+00 5.210065e+00 5.138926e+00 3.416880e+00 1.487897e+00 -2.635966e-01 7.383414e-02 4.202736e-02 3.851665e-01 4.683481e-01 5.941663e-01 5.880733e-01 6.916522e-01 6.331411e-01 4.947403e-01 3.869488e-01 1.318602e-01 -3.151698e-02 -1.658284e-01 -1.009210e-01 -2.754577e-01 -5.191845e-01 -7.084622e-01 -7.486839e-01 -7.058394e-01 -6.207612e-01 -5.721093e-01 -3.938137e-01 -1.262864e-01
<VARIANCE> 36
 1.893351e+01 3.425912e+01 3.125144e+01 3.151678e+01 3.367924e+01 3.152538e+01 2.764776e+01 3.094535e+01 2.983584e+01 2.720919e+01 2.156539e+01 2.263691e+01 5.792293e-01 9.406789e-01 1.308862e+00 1.726838e+00 2.160387e+00 2.479585e+00 2.634305e+00 2.833567e+00 2.744449e+00 2.619532e+00 2.506055e+00 2.353265e+00 1.118889e-01 1.783246e-01 2.733927e-01 3.171630e-01 3.982164e-01 4.240089e-01 3.929026e-01 4.726564e-01 5.000507e-01 4.826414e-01 3.888255e-01 3.875856e-01
<GCONST> 1.006484e+02
<MIXTURE> 7 3.280410e-04
<MEAN> 36
 7.631835e+00 2.315999e+00 2.784930e+00 3.613797e+00 2.996665e+00 2.756663e+00 2.349771e-01 1.722831e+00 1.318972e+00 1.007892e+00 1.287776e+00 7.517269e-01 0.000000e+00 0.000000e+00 0.000000e+00 0.000000e+00 0.000000e+00 0.000000e+00 0.000000e+00 0.000000e+00 0.000000e+00 0.000000e+00 0.000000e+00 0.000000e+00 0.000000e+00 0.000000e+00 0.000000e+00 0.000000e+00 0.000000e+00 0.000000e+00 0.000000e+00 0.000000e+00 0.000000e+00 0.000000e+00 0.000000e+00 0.000000e+00
<VARIANCE> 36
 3.312076e-01 8.409564e-02 4.995550e-01 2.944258e-01 7.351564e-01 1.244052e-01 1.037381e-01 3.570666e-01 2.114824e-01 7.345664e-02 1.241552e-01 5.427825e-02 1.000000e-04 1.000000e-04 1.000000e-04 1.000000e-04 1.000000e-04 1.000000e-04 1.000000e-04 1.000000e-04 1.000000e-04 1.000000e-04 1.000000e-04 1.000000e-04 1.000000e-04 1.000000e-04 1.000000e-04 1.000000e-04 1.000000e-04 1.000000e-04 1.000000e-04 1.000000e-04 1.000000e-04 1.000000e-04 1.000000e-04 1.000000e-04
<GCONST> -1.752343e+02
<MIXTURE> 8 4.049995e-05
<MEAN> 36
 1.253637e+01 1.610111e+00 6.905918e-01 -1.408630e+01 5.368844e+00 2.546029e+01 -3.066830e+01 7.607343e+00 3.696789e-01 1.897599e+01 -2.469217e+01 1.520898e+00 0.000000e+00 0.000000e+00 0.000000e+00 0.000000e+00 0.000000e+00 0.000000e+00 0.000000e+00 0.000000e+00 0.000000e+00 0.000000e+00 0.000000e+00 0.000000e+00 0.000000e+00 0.000000e+00 0.000000e+00 0.000000e+00 0.000000e+00 0.000000e+00 0.000000e+00 0.000000e+00 0.000000e+00 0.000000e+00 0.000000e+00 0.000000e+00
<VARIANCE> 36
 2.117841e-02 2.466233e-02 1.234267e-01 5.183051e-01 9.247150e-02 1.182772e+00 1.960832e+00 8.697289e-02 2.048229e-02 7.020205e-01 1.093052e+00 9.735786e-03 1.000000e-04 1.000000e-04 1.000000e-04 1.000000e-04 1.000000e-04 1.000000e-04 1.000000e-04 1.000000e-04 1.000000e-04 1.000000e-04 1.000000e-04 1.000000e-04 1.000000e-04 1.000000e-04 1.000000e-04 1.000000e-04 1.000000e-04 1.000000e-04 1.000000e-04 1.000000e-04 1.000000e-04 1.000000e-04 1.000000e-04 1.000000e-04
<GCONST> -1.779579e+02
<MIXTURE> 9 1.280210e-03
<MEAN> 36
 7.564576e+00 -1.316384e+00 -5.589039e+00 -9.377083e-02 2.660725e+00 -6.439054e+00 -7.188568e+00 1.368953e+00 1.637150e+00 2.544439e+00 -1.565514e+00 -1.565940e-01 -3.938644e-01 1.704802e+00 2.321443e+00 1.422954e+00 2.077181e+00 1.154483e+00 7.979053e-02 -1.712179e+00 -1.005816e+00 3.924910e-02 -8.019896e-02 -1.638173e-01 -3.809925e-01 -9.061496e-02 2.020579e-01 1.956444e-01 -1.001723e-01 3.305282e-01 9.508083e-01 2.862968e-01 -1.113488e-01 -3.790350e-01 7.366174e-02 3.533134e-02
<VARIANCE> 36
 9.291634e+00 1.383236e+01 2.449829e+01 2.299648e+01 2.892814e+01 3.827591e+01 3.656504e+01 3.296224e+01 2.777282e+01 2.661484e+01 2.179314e+01 1.991262e+01 7.946740e-01 1.269929e+00 2.355852e+00 2.270002e+00 3.466728e+00 4.304872e+00 4.310319e+00 3.595625e+00 3.345038e+00 3.216097e+00 2.792106e+00 2.371197e+00 8.456782e-02 1.735224e-01 2.807913e-01 3.174401e-01 4.368946e-01 5.322416e-01 5.744854e-01 5.091895e-01 4.883316e-01 4.620761e-01 4.009207e-01 3.531932e-01
<GCONST> 1.027608e+02
<MIXTURE> 10 9.726977e-04
<MEAN> 36
 -7.047507e+00 -1.625352e+00 -2.093652e+00 1.681109e+00 8.595478e-01 5.580531e-01 -4.338717e+00 -5.254287e+00 -4.407161e+00 -5.741071e-01 8.451312e-01 1.861718e+00 1.766411e+00 4.922932e-01 7.262902e-01 4.116245e-01 4.907851e-01 2.386899e-01 2.505874e-01 1.844223e-01 2.763571e-01 1.678535e-01 1.512114e-02 9.735936e-03 9.579455e-01 1.802271e-01 2.391970e-01 9.909111e-03 4.199098e-02 1.239541e-01 6.340960e-01 8.681268e-01 6.411138e-01 8.633608e-02 -8.820138e-02 -2.701915e-01
<VARIANCE> 36
 5.095321e+00 3.797165e+00 4.793371e+00 8.436859e+00 8.536421e+00 1.084890e+01 1.249303e+01 1.030080e+01 1.535208e+01 1.947656e+01 1.925971e+01 1.597931e+01 2.214858e+00 3.425064e-01 4.641934e-01 9.597958e-01 7.897134e-01 1.056655e+00 1.525517e+00 1.600596e+00 1.422748e+00 1.220901e+00 1.363404e+00 1.074451e+00 2.705932e-01 6.889267e-02 9.311926e-02 1.640654e-01 1.695830e-01 2.262171e-01 2.677246e-01 2.123778e-01 3.060625e-01 3.923672e-01 3.945677e-01 3.237139e-01
<GCONST> 7.573357e+01
<MIXTURE> 11 4.435972e-04
<MEAN> 36
 -5.685011e+00 -7.685885e-01 -3.874256e+00 -5.131835e+00 8.889397e-01 5.102068e+00 -6.621044e+00 3.848417e+00 -1.775017e+00 8.170729e-01 -8.541801e-01 5.403807e-01 3.349998e+00 6.531463e-01 1.158367e+00 8.924672e-01 7.100892e-01 1.713737e-01 6.835384e-01 6.001767e-02 4.071104e-01 1.810493e-01 8.767430e-02 5.809992e-02 6.537282e-01 2.902547e-02 4.105481e-01 8.551586e-01 3.184924e-02 -4.447569e-01 8.358777e-01 -3.677509e-01 2.621356e-01 -8.102525e-02 1.132864e-01 -7.519223e-02
<VARIANCE> 36
 6.126470e+00 5.837110e+00 9.209975e+00 1.762639e+01 2.472200e+01 3.167693e+01 1.979577e+01 2.266043e+01 2.028133e+01 2.412110e+01 2.496318e+01 1.492901e+01 4.618687e-01 1.995827e-01 3.411057e-01 9.941338e-01 7.436565e-01 9.996150e-01 1.255466e+00 1.278655e+00 1.067935e+00 1.011451e+00 1.136391e+00 9.320031e-01 2.162132e-01 8.330231e-02 1.466409e-01 3.050878e-01 4.087639e-01 5.018849e-01 3.523909e-01 4.252633e-01 3.715192e-01 4.157216e-01 4.384061e-01 2.941463e-01
<GCONST> 8.203691e+01
<MIXTURE> 12 1.373995e-03
<MEAN> 36
 9.566869e+00 4.616301e+00 -6.183372e+00 4.747805e-01 5.729495e+00 -1.027421e+00 -5.734095e+00 -5.905200e+00 -2.686037e+00 1.385267e+00 -1.561878e+00 3.289680e-01 3.750423e-02 1.248997e-01 -6.203138e-03 -1.046818e-01 -5.735156e-02 2.502064e-01 1.825441e-01 -1.107096e-01 -1.470101e-01 -1.163569e-01 6.804889e-02 4.784682e-02 -6.343057e-02 -6.453880e-02 1.052468e-01 2.793120e-02 -1.269617e-01 -8.559795e-02 3.334304e-02 1.888520e-01 3.685606e-02 -6.952861e-02 5.522964e-02 -2.664672e-02
<VARIANCE> 36
 6.665715e+00 1.440824e+01 2.817784e+01 3.137998e+01 2.916691e+01 4.097423e+01 3.647090e+01 2.874651e+01 3.019781e+01 2.598964e+01 2.125938e+01 1.675783e+01 1.157449e-01 2.887399e-01 5.020204e-01 6.763042e-01 7.855844e-01 1.083342e+00 1.143902e+00 1.180916e+00 1.188524e+00 1.158589e+00 1.113374e+00 9.722928e-01 2.099305e-02 5.231869e-02 8.219804e-02 1.148091e-01 1.366650e-01 1.977445e-01 2.095748e-01 2.095182e-01 2.109584e-01 1.985449e-01 1.866880e-01 1.626164e-01
<GCONST> 7.527384e+01
<MIXTURE> 13 1.234796e-03
<MEAN> 36
 5.270216e+00 6.857648e-01 1.412591e+00 1.849223e+00 2.835188e+00 1.941340e+00 1.133197e+00 1.542779e+00 1.030685e+00 3.503393e-01 8.464699e-01 2.969773e-03 -0.000000e+00 -0.000000e+00 -0.000000e+00 -0.000000e+00 -0.000000e+00 -0.000000e+00 -0.000000e+00 -0.000000e+00 -0.000000e+00 -0.000000e+00 -0.000000e+00 -0.000000e+00 -0.000000e+00 -0.000000e+00 -0.000000e+00 -0.000000e+00 -0.000000e+00 -0.000000e+00 -0.000000e+00 -0.000000e+00 -0.000000e+00 -0.000000e+00 -0.000000e+00 -0.000000e+00
<VARIANCE> 36
 8.911712e-01 1.743553e-01 2.929822e-01 4.460398e-01 1.400749e-01 2.641513e-01 4.209028e-01 3.993563e-01 7.903676e-02 6.423166e-02 1.073054e-01 2.224058e-02 1.000000e-04 1.000000e-04 1.000000e-04 1.000000e-04 1.000000e-04 1.000000e-04 1.000000e-04 1.000000e-04 1.000000e-04 1.000000e-04 1.000000e-04 1.000000e-04 1.000000e-04 1.000000e-04 1.000000e-04 1.000000e-04 1.000000e-04 1.000000e-04 1.000000e-04 1.000000e-04 1.000000e-04 1.000000e-04 1.000000e-04 1.000000e-04
<GCONST> -1.751826e+02
<MIXTURE> 14 2.036966e-04
<MEAN> 36
 5.370916e+00 1.069116e+00 1.595789e+00 5.769630e+00 2.911662e+00 4.231632e+00 2.094924e+00 2.229984e+00 2.834211e+00 1.471496e+00 1.991341e+00 1.090907e+00 -1.684556e-09 -1.829457e-09 -1.663637e-09 -2.006113e-09 -1.571093e-09 -1.250185e-09 -1.133017e-09 -5.982664e-10 2.977633e-11 9.519778e-10 7.474713e-10 2.878082e-09 -7.664488e-09 -1.000664e-08 -2.147706e-09 -1.237145e-08 -9.324054e-09 -1.289855e-08 -6.612159e-09 -5.756585e-09 -1.069405e-08 -7.293761e-09 5.353293e-09 -1.395788e-10
<VARIANCE> 36
 4.602095e+00 1.955589e+00 6.966963e+00 5.080761e+00 2.905287e+00 6.204835e+00 3.418915e+00 1.435758e+00 9.068069e-01 2.038471e+00 1.979162e+00 1.404297e+00 1.000000e-04 1.000000e-04 1.000000e-04 1.000000e-04 1.000000e-04 1.000000e-04 1.000000e-04 1.000000e-04 1.000000e-04 1.000000e-04 1.000000e-04 1.000000e-04 1.000000e-04 1.000000e-04 1.000000e-04 1.000000e-04 1.000000e-04 1.000000e-04 1.000000e-04 1.000000e-04 1.000000e-04 1.000000e-04 1.000000e-04 1.000000e-04
<GCONST> -1.430013e+02
<MIXTURE> 15 6.661470e-05
<MEAN> 36
 7.360319e+00 1.318696e+00 -3.824504e-01 5.600706e+00 2.495641e+00 3.280662e+00 1.624266e+00 2.241850e+00 1.550940e+00 9.036261e-01 1.315336e+00 6.187159e-01 -6.149125e-06 -7.649015e-06 -6.648453e-06 -1.474017e-07 7.166210e-06 -1.096471e-06 -7.842419e-06 -8.183963e-06 -4.493149e-06 -2.449381e-06 -5.462581e-06 2.529248e-06 -5.583834e-01 -5.369349e-02 -9.564136e-02 -7.511908e-02 -7.729873e-02 -4.640341e-02 -5.747487e-02 -3.803761e-02 -3.314764e-02 -9.060836e-03 -3.102729e-02 -1.417367e-02
<VARIANCE> 36
 8.501147e+00 4.703166e+00 6.771658e+00 4.539073e+00 4.578101e+00 5.907098e+00 3.398991e+00 1.634474e+00 1.609874e+00 2.127408e+00 2.383014e+00 1.625241e+00 1.000000e-04 1.000000e-04 1.000000e-04 1.000000e-04 1.000000e-04 1.000000e-04 1.000000e-04 1.000000e-04 1.000000e-04 1.000000e-04 1.000000e-04 1.000000e-04 6.432246e-02 2.638274e-02 3.564648e-02 5.130766e-02 4.301678e-02 4.724140e-02 4.924672e-02 4.541266e-02 3.745297e-02 3.172359e-02 3.016388e-02 2.221463e-02
<GCONST> -6.867722e+01
<MIXTURE> 16 2.801825e-05
<MEAN> 36
 4.677210e-01 -1.617756e+00 -3.226807e+00 1.317677e+00 3.035735e+00 -3.291862e+00 3.228104e+00 -1.228438e+00 3.797278e-01 -1.443653e+00 2.994390e+00 -5.169290e-01 8.299827e-04 -4.080629e-03 -2.788126e-03 3.567314e-03 7.759952e-03 -3.848457e-03 -7.392121e-03 -6.036758e-04 6.907821e-03 2.871704e-03 -3.623390e-03 -3.908682e-03 -3.902839e-02 4.884925e-02 9.516296e-02 3.371486e-02 -9.835330e-02 1.593827e-02 2.660004e-02 1.713243e-02 -7.246318e-03 -2.149323e-02 3.660645e-03 9.486342e-03
<VARIANCE> 36
 1.000000e-04 1.000000e-04 1.000000e-04 1.000000e-04 1.000000e-04 1.000000e-04 1.000000e-04 1.000000e-04 1.000000e-04 1.000000e-04 1.000000e-04 1.000000e-04 1.000000e-04 1.000000e-04 1.000000e-04 1.000000e-04 1.000000e-04 1.000000e-04 1.000000e-04 1.000000e-04 1.000000e-04 1.000000e-04 1.000000e-04 1.000000e-04 1.000000e-04 1.000000e-04 1.000000e-04 1.000000e-04 1.000000e-04 1.000000e-04 1.000000e-04 1.000000e-04 1.000000e-04 1.000000e-04 1.000000e-04 1.000000e-04
<GCONST> -2.654087e+02
<MIXTURE> 17 1.005854e-03
<MEAN> 36
 2.855613e+00 3.678052e+00 8.024633e+00 -9.788451e-01 6.104865e-01 -1.288941e+00 4.789146e+00 -3.856439e+00 -1.958084e+00 5.151200e+00 -1.944243e+00 1.050884e-01 2.482889e-01 1.202992e+00 3.369136e-01 1.799063e+00 2.890666e+00 -1.083740e+00 1.022829e+00 8.330842e-01 -1.645671e+00 2.931664e-01 1.427470e-01 -3.172937e-01 -1.544067e-01 -1.268214e-02 -3.122152e-01 -3.048596e-01 -1.564807e-01 5.838838e-02 -3.937899e-01 1.535086e-01 4.263887e-01 -4.988455e-01 1.322310e-01 1.266163e-01
<VARIANCE> 36
 8.125809e+00 1.621797e+01 1.439387e+01 2.541368e+01 3.403209e+01 2.701950e+01 2.799667e+01 3.108722e+01 3.155562e+01 2.512257e+01 2.069150e+01 1.823079e+01 6.993827e-01 1.759832e+00 2.306594e+00 3.388145e+00 3.765518e+00 4.428832e+00 4.490983e+00 4.819814e+00 4.266349e+00 4.107481e+00 3.232557e+00 2.706540e+00 5.350942e-02 1.765261e-01 1.662464e-01 3.133883e-01 3.893345e-01 3.475700e-01 3.824992e-01 3.842089e-01 3.894097e-01 3.829201e-01 3.207952e-01 2.903852e-01
<GCONST> 1.005220e+02
<MIXTURE> 18 1.097350e-03
<MEAN> 36
 -4.651970e+00 8.689214e-01 -7.391580e-01 -2.195885e-01 3.194581e-01 3.142844e-01 -1.768833e+00 -1.354708e+00 -1.180136e+00 -1.753562e+00 -3.654038e-01 -1.013699e-01 1.724258e+00 3.099390e+00 2.507647e+00 6.439552e-02 1.626910e+00 -1.518487e-01 -3.113211e-01 -2.270319e-01 -6.317127e-01 -3.580618e-01 -4.055102e-01 -4.330743e-01 3.342116e-01 5.886281e-01 5.236863e-01 -3.420993e-02 3.334137e-01 -4.913415e-02 5.062077e-02 1.788752e-01 6.396035e-02 1.177098e-01 3.670219e-02 -7.656603e-02
<VARIANCE> 36
 1.199133e+01 2.124807e+01 1.722156e+01 2.335725e+01 2.047775e+01 1.978177e+01 2.179629e+01 1.788519e+01 2.123967e+01 2.370870e+01 2.208967e+01 1.993346e+01 1.695035e+00 1.797210e+00 1.962014e+00 3.907170e+00 2.959370e+00 3.626567e+00 3.636344e+00 3.568131e+00 3.449608e+00 3.418634e+00 3.161801e+00 2.631104e+00 1.582417e-01 3.130191e-01 2.939118e-01 4.487320e-01 4.204693e-01 4.694160e-01 5.140989e-01 4.106981e-01 5.114114e-01 5.751861e-01 5.308157e-01 4.879644e-01
<GCONST> 1.038699e+02
<MIXTURE> 19 1.069593e-03
<MEAN> 36
 1.791265e+00 1.046420e+00 -8.128731e-01 7.540063e-01 2.621439e+00 3.239325e+00 4.613750e+00 6.829060e+00 1.024366e+01 1.229659e+01 1.260218e+01 9.453087e+00 3.226825e-02 7.447650e-02 6.435096e-02 7.325292e-02 4.898103e-02 5.611548e-02 4.097637e-02 4.766225e-02 8.207304e-02 9.389465e-02 9.038196e-02 4.044021e-02 7.348629e-03 1.571402e-02 6.694056e-02 -6.270494e-02 -7.468020e-02 -7.261202e-02 -9.464332e-02 -1.829034e-01 -2.909492e-01 -3.940760e-01 -3.570250e-01 -2.049810e-01
<VARIANCE> 36
 1.858614e+01 7.137012e+01 4.813826e+01 5.327913e+01 5.022635e+01 6.193168e+01 4.900934e+01 3.816793e+01 4.344144e+01 3.568450e+01 3.609338e+01 5.714973e+01 2.391713e-01 7.354233e-01 9.064903e-01 1.344376e+00 1.508273e+00 1.939432e+00 2.055978e+00 2.049060e+00 2.409814e+00 2.437319e+00 2.313671e+00 2.765475e+00 4.449601e-02 1.163340e-01 1.553510e-01 2.262565e-01 2.629278e-01 3.346920e-01 3.552899e-01 3.623528e-01 4.365951e-01 4.592593e-01 4.316146e-01 4.172533e-01
<GCONST> 9.994250e+01
<MIXTURE> 20 1.923718e-03
<MEAN> 36
 2.106869e+00 3.978912e+00 2.557913e+00 2.637344e+00 1.295872e+00 2.184726e+00 1.106165e+00 1.741726e+00 2.789274e+00 3.807200e-01 -4.310772e-01 -1.882540e+00 -1.367442e-01 -6.628862e-02 -4.978206e-02 1.887244e-02 2.408625e-02 2.693898e-02 -8.803913e-03 7.485906e-02 8.873949e-02 9.069796e-02 8.805110e-02 3.149873e-02 -1.234267e-01 -1.923255e-01 -1.231725e-01 -5.923807e-02 5.596305e-02 -1.452612e-01 -7.935791e-02 -1.677142e-01 -3.417254e-01 -1.139539e-02 9.590150e-02 2.544151e-01
<VARIANCE> 36
 1.215251e+01 1.015210e+01 1.118820e+01 1.213214e+01 1.117528e+01 1.401054e+01 1.437177e+01 1.216807e+01 1.142235e+01 1.258632e+01 1.152496e+01 8.996346e+00 3.212097e-01 5.379080e-01 7.409527e-01 9.777006e-01 1.276760e+00 1.502641e+00 1.710689e+00 1.796634e+00 1.842356e+00 1.798927e+00 1.699713e+00 1.514984e+00 5.508036e-02 9.872457e-02 1.390898e-01 1.566759e-01 1.687292e-01 2.369874e-01 2.426348e-01 2.105464e-01 2.029331e-01 2.180012e-01 2.134328e-01 1.716740e-01
<GCONST> 7.589819e+01
<MIXTURE> 21 1.460943e-03
<MEAN> 36
 -4.383454e+00 1.326849e-01 -8.592268e-01 6.716545e-01 -2.447423e-01 1.831653e-01 -2.004234e+00 2.174073e+00 4.623114e+00 2.617399e+00 1.369108e+00 -6.523703e-01 5.305537e-01 3.931152e-01 7.214503e-01 7.628627e-01 6.447713e-01 3.371429e-01 3.278704e-01 -1.274198e-01 -1.277024e-02 -4.870592e-02 -3.338043e-01 -1.385013e-01 2.971160e-01 -7.686063e-02 -1.725117e-02 6.840809e-02 9.415712e-02 1.019764e-01 3.025411e-01 -2.579037e-01 -6.738787e-01 -3.806697e-01 -1.754417e-01 8.420691e-02
<VARIANCE> 36
 1.115317e+01 6.041076e+00 7.031333e+00 8.138939e+00 9.246570e+00 1.013494e+01 1.143028e+01 1.165321e+01 9.476054e+00 1.164195e+01 1.113935e+01 8.707129e+00 2.758028e+00 1.408454e+00 1.259386e+00 2.061044e+00 2.060924e+00 2.473231e+00 2.883998e+00 2.715641e+00 2.814777e+00 2.402699e+00 2.271344e+00 1.796918e+00 2.901421e-01 1.181736e-01 1.330629e-01 1.654240e-01 2.046415e-01 2.159603e-01 2.807333e-01 2.745306e-01 2.039002e-01 2.542861e-01 2.459632e-01 1.919056e-01
<GCONST> 8.356258e+01
<MIXTURE> 22 1.243858e-03
<MEAN> 36
 1.417847e+00 -6.681118e-01 1.383315e+00 -7.409155e+00 -1.022282e+01 1.045525e+00 4.019489e+00 -7.248403e+00 7.955380e+00 2.267548e-01 -1.004033e+00 -2.205684e-01 6.752163e-01 1.208266e+00 1.422448e+00 1.879900e+00 7.800726e-01 -1.168955e+00 -3.137589e-01 -7.002264e-01 -1.405241e+00 5.654094e-01 2.234528e-01 1.337126e-01 -8.659459e-02 1.050719e-01 8.021162e-02 5.662525e-01 9.847300e-01 -8.300757e-02 -9.043548e-02 6.491070e-01 -8.809459e-01 -1.084276e-03 4.389146e-03 -8.657800e-03
<VARIANCE> 36
 1.283385e+01 1.872820e+01 1.813697e+01 2.580404e+01 2.741939e+01 3.096108e+01 3.840625e+01 2.700490e+01 2.406498e+01 2.404409e+01 1.995021e+01 1.703629e+01 8.497974e-01 1.673812e+00 1.626675e+00 2.646994e+00 3.572245e+00 3.488824e+00 3.857985e+00 3.842041e+00 3.702063e+00 2.926528e+00 2.418743e+00 2.102719e+00 1.613411e-01 2.848361e-01 2.797698e-01 4.113244e-01 4.532030e-01 6.054849e-01 6.265991e-01 5.339366e-01 4.405427e-01 3.999655e-01 3.907394e-01 3.171662e-01
<GCONST> 1.032576e+02
<MIXTURE> 23 1.006008e-03
<MEAN> 36
 4.776230e+00 -2.570286e+00 1.863177e+00 -4.145729e-01 -1.022704e+01 -4.802340e+00 4.412817e+00 -1.384420e+00 -2.093989e+00 3.446982e+00 2.805366e+00 -2.798393e+00 1.612994e-01 1.767483e+00 1.341468e+00 1.929612e+00 2.750984e+00 -6.589075e-01 -9.729971e-01 9.766906e-02 -1.066636e+00 -9.620619e-01 5.720438e-02 7.527919e-01 -2.890742e-01 2.217463e-01 -5.635843e-02 -6.909133e-02 9.107996e-01 4.049354e-01 -2.917546e-02 1.480774e-01 2.357874e-01 -3.192102e-01 -4.542235e-01 2.903726e-01
<VARIANCE> 36
 1.046232e+01 1.539770e+01 1.841818e+01 2.362907e+01 2.654477e+01 2.858114e+01 2.942024e+01 3.408870e+01 2.049069e+01 2.529237e+01 2.047449e+01 1.647025e+01 7.285968e-01 1.605978e+00 2.014730e+00 2.711797e+00 3.247315e+00 4.311706e+00 4.148287e+00 4.488865e+00 3.569220e+00 3.129493e+00 2.899249e+00 2.256231e+00 9.696312e-02 2.430646e-01 2.764245e-01 3.342452e-01 4.653909e-01 4.848544e-01 4.858474e-01 5.474005e-01 3.804312e-01 4.266661e-01 3.591701e-01 3.206054e-01
<GCONST> 1.017224e+02
<MIXTURE> 24 5.963364e-04
<MEAN> 36
 4.674027e+00 2.998089e-01 2.027335e+00 3.347801e+00 3.054865e+00 3.071107e+00 1.767500e+00 1.501011e+00 2.068330e+00 -9.994348e-02 1.281602e+00 1.336707e-01 0.000000e+00 0.000000e+00 0.000000e+00 0.000000e+00 0.000000e+00 0.000000e+00 0.000000e+00 0.000000e+00 0.000000e+00 0.000000e+00 0.000000e+00 0.000000e+00 0.000000e+00 0.000000e+00 0.000000e+00 0.000000e+00 0.000000e+00 0.000000e+00 0.000000e+00 0.000000e+00 0.000000e+00 0.000000e+00 0.000000e+00 0.000000e+00
<VARIANCE> 36
 2.431942e+00 4.183517e-01 4.401596e-01 8.401666e-01 6.342375e-01 5.411706e-01 4.575521e-01 2.562131e-01 1.170182e-01 1.357429e-01 4.221790e-01 6.485287e-02 1.000000e-04 1.000000e-04 1.000000e-04 1.000000e-04 1.000000e-04 1.000000e-04 1.000000e-04 1.000000e-04 1.000000e-04 1.000000e-04 1.000000e-04 1.000000e-04 1.000000e-04 1.000000e-04 1.000000e-04 1.000000e-04 1.000000e-04 1.000000e-04 1.000000e-04 1.000000e-04 1.000000e-04 1.000000e-04 1.000000e-04 1.000000e-04
<GCONST> -1.668155e+02
<MIXTURE> 25 2.237304e-04
<MEAN> 36
 3.918946e+00 3.849464e-01 7.925603e-01 2.405387e+00 2.093369e+00 1.894416e+00 6.420703e-01 1.364535e+00 5.501170e-01 2.006090e-01 5.589927e-01 8.909536e-02 3.965970e+00 6.959335e-01 1.074608e+00 3.689061e-01 5.893589e-01 2.326074e-01 3.601872e-01 1.437293e-01 2.532040e-01 1.142892e-01 1.821189e-01 1.220627e-01 3.618465e-01 5.813883e-02 9.562325e-02 3.233257e-02 5.605807e-02 2.394424e-02 3.594013e-02 1.441724e-02 2.373976e-02 1.020044e-02 1.684882e-02 1.151734e-02
<VARIANCE> 36
 1.350120e+01 2.101118e+00 1.935668e+00 2.152536e+00 1.486506e+00 1.306670e+00 1.171754e+00 8.547724e-01 6.946753e-01 5.692403e-01 4.263206e-01 2.353283e-01 1.000000e-04 1.000000e-04 1.000000e-04 1.000000e-04 1.000000e-04 1.000000e-04 1.000000e-04 1.000000e-04 1.000000e-04 1.000000e-04 1.000000e-04 1.000000e-04 1.607897e-01 5.121402e-03 3.233205e-03 3.442223e-03 8.185251e-04 1.197460e-04 1.091071e-03 1.000000e-04 1.648336e-04 2.260102e-04 1.000000e-04 1.000000e-04
<GCONST> -1.283530e+02
<MIXTURE> 26 5.610983e-04
<MEAN> 36
 4.791714e+00 8.266219e-01 8.814695e-01 3.333535e+00 1.496239e+00 1.539749e+00 -4.274727e-01 1.240273e+00 1.707979e+00 2.243189e+00 1.972698e+00 -2.260661e-01 -1.401298e-45 -1.401298e-45 -1.401298e-45 -1.401298e-45 -1.401298e-45 -1.401298e-45 -1.401298e-45 -1.401298e-45 -1.401298e-45 -1.401298e-45 -1.401298e-45 -1.401298e-45 -1.401298e-45 -1.401298e-45 -1.401298e-45 -1.401298e-45 -1.401298e-45 -1.401298e-45 -1.401298e-45 -1.401298e-45 -1.401298e-45 -1.401298e-45 -1.401298e-45 -1.401298e-45
<VARIANCE> 36
 6.365082e-01 1.682029e+00 1.044588e+00 1.154883e+00 1.422112e+00 3.526346e-01 9.093237e-01 5.213826e-01 8.140253e-01 6.427817e-01 4.464612e-01 1.961951e-01 1.000000e-04 1.000000e-04 1.000000e-04 1.000000e-04 1.000000e-04 1.000000e-04 1.000000e-04 1.000000e-04 1.000000e-04 1.000000e-04 1.000000e-04 1.000000e-04 1.000000e-04 1.000000e-04 1.000000e-04 1.000000e-04 1.000000e-04 1.000000e-04 1.000000e-04 1.000000e-04 1.000000e-04 1.000000e-04 1.000000e-04 1.000000e-04
<GCONST> -1.591480e+02
<MIXTURE> 27 1.175595e-03
<MEAN> 36
 5.593058e+00 -4.610825e-01 1.091995e+00 1.917788e+00 1.828029e+00 2.064786e+00 1.462576e-01 1.645718e+00 3.803788e-01 3.654442e-01 7.748078e-01 2.946481e-01 -0.000000e+00 -0.000000e+00 -0.000000e+00 -0.000000e+00 -0.000000e+00 -0.000000e+00 -0.000000e+00 -0.000000e+00 -0.000000e+00 -0.000000e+00 -0.000000e+00 -0.000000e+00 -0.000000e+00 -0.000000e+00 -0.000000e+00 -0.000000e+00 -0.000000e+00 -0.000000e+00 -0.000000e+00 -0.000000e+00 -0.000000e+00 -0.000000e+00 -0.000000e+00 -0.000000e+00
<VARIANCE> 36
 1.377848e+00 9.158821e-01 9.642192e-01 1.151380e+00 1.744744e-01 1.251006e-01 2.941737e-01 4.823967e-02 6.123339e-02 3.977220e-02 4.420577e-02 3.109904e-02 1.000000e-04 1.000000e-04 1.000000e-04 1.000000e-04 1.000000e-04 1.000000e-04 1.000000e-04 1.000000e-04 1.000000e-04 1.000000e-04 1.000000e-04 1.000000e-04 1.000000e-04 1.000000e-04 1.000000e-04 1.000000e-04 1.000000e-04 1.000000e-04 1.000000e-04 1.000000e-04 1.000000e-04 1.000000e-04 1.000000e-04 1.000000e-04
<GCONST> -1.752343e+02
<MIXTURE> 28 7.445630e-04
<MEAN> 36
 4.517708e+00 -6.618128e-02 1.336634e-01 2.760187e+00 2.462791e+00 2.266127e+00 2.249905e+00 2.323745e+00 1.871074e+00 9.091330e-01 1.563858e+00 7.554942e-01 -0.000000e+00 -0.000000e+00 -0.000000e+00 -0.000000e+00 -0.000000e+00 -0.000000e+00 -0.000000e+00 -0.000000e+00 -0.000000e+00 -0.000000e+00 -0.000000e+00 -0.000000e+00 -0.000000e+00 -0.000000e+00 -0.000000e+00 -0.000000e+00 -0.000000e+00 -0.000000e+00 -0.000000e+00 -0.000000e+00 -0.000000e+00 -0.000000e+00 -0.000000e+00 -0.000000e+00
<VARIANCE> 36
 7.825255e-01 9.574490e-01 1.037773e+00 1.423076e+00 1.209059e+00 8.522865e-01 1.808710e-01 2.714202e-01 5.493248e-01 1.134376e-01 2.108959e-01 5.316921e-02 1.000000e-04 1.000000e-04 1.000000e-04 1.000000e-04 1.000000e-04 1.000000e-04 1.000000e-04 1.000000e-04 1.000000e-04 1.000000e-04 1.000000e-04 1.000000e-04 1.000000e-04 1.000000e-04 1.000000e-04 1.000000e-04 1.000000e-04 1.000000e-04 1.000000e-04 1.000000e-04 1.000000e-04 1.000000e-04 1.000000e-04 1.000000e-04
<GCONST> -1.650337e+02
<MIXTURE> 29 1.337043e-04
<MEAN> 36
 7.574885e+00 1.812095e+00 1.864523e+00 3.317475e+00 2.700982e+00 2.377299e+00 1.330311e+00 1.454870e+00 1.047742e+00 7.617540e-01 9.965463e-01 5.492678e-01 -9.073268e-07 -9.384437e-07 -4.334887e-07 -1.955456e-06 -9.116155e-07 -1.128729e-06 -1.207286e-06 -1.051515e-06 -1.021571e-06 -8.190651e-07 -9.054402e-07 -4.520775e-07 -4.689168e-01 -5.112912e-02 -1.089069e-01 -4.869860e-02 -7.043676e-02 -3.503907e-02 -4.895805e-02 -2.540074e-02 -2.695885e-02 -1.970749e-02 -2.733890e-02 -1.220441e-02
<VARIANCE> 36
 3.364281e+00 2.651708e+00 1.567598e+00 5.438612e-01 8.938807e-01 6.311324e-01 8.405113e-01 3.748704e-01 2.269978e-01 1.618746e-01 2.093543e-01 9.271859e-02 1.000000e-04 1.000000e-04 1.000000e-04 1.000000e-04 1.000000e-04 1.000000e-04 1.000000e-04 1.000000e-04 1.000000e-04 1.000000e-04 1.000000e-04 1.000000e-04 9.389982e-03 2.150739e-02 3.270730e-02 4.756880e-02 4.650177e-02 5.276171e-02 5.463456e-02 4.902121e-02 4.601914e-02 3.880203e-02 3.401761e-02 2.570793e-02
<GCONST> -9.158049e+01
<MIXTURE> 30 9.560101e-05
<MEAN> 36
 6.356712e+00 4.759997e-01 2.579100e+00 3.476310e+00 3.411369e+00 3.243525e+00 1.003993e+00 2.534595e+00 7.980837e-01 1.077118e+00 1.065299e+00 7.685961e-01 -6.083270e-07 -7.588556e-07 -6.886439e-07 -1.364997e-06 -1.431704e-06 -1.607112e-06 -1.156840e-06 -1.263087e-06 -1.134817e-06 -4.547744e-07 1.894398e-07 -7.049320e-09 -9.639812e-01 -1.343287e-01 -2.306902e-01 -7.642040e-02 -1.266905e-01 -4.982047e-02 -5.841094e-02 -1.073211e-02 -2.850354e-02 -3.455595e-02 -6.464075e-02 -6.580318e-02
<VARIANCE> 36
 3.976429e+00 2.748379e+00 1.369445e+00 1.774900e+00 9.574231e-01 8.112155e-01 1.009561e+00 6.851116e-01 6.276546e-01 3.915938e-01 5.518917e-01 3.475127e-01 1.000000e-04 1.000000e-04 1.000000e-04 1.000000e-04 1.000000e-04 1.000000e-04 1.000000e-04 1.000000e-04 1.000000e-04 1.000000e-04 1.000000e-04 1.000000e-04 1.186252e-02 2.163276e-02 2.734890e-02 4.446467e-02 4.458998e-02 6.086515e-02 7.360885e-02 7.694760e-02 7.373402e-02 7.313673e-02 7.438500e-02 6.248466e-02
<GCONST> -8.141409e+01
<MIXTURE> 31 5.479971e-05
<MEAN> 36
 5.374847e+00 3.442189e-01 8.684580e-01 2.402155e+00 2.205869e+00 1.945862e+00 7.373870e-01 1.403150e+00 5.839481e-01 1.552195e-01 5.623765e-01 7.434098e-02 0.000000e+00 0.000000e+00 0.000000e+00 0.000000e+00 0.000000e+00 0.000000e+00 0.000000e+00 0.000000e+00 0.000000e+00 0.000000e+00 0.000000e+00 0.000000e+00 -5.270931e-01 -8.834291e-02 -1.358004e-01 -3.962012e-02 -6.674739e-02 -1.441439e-02 -2.598316e-02 1.194077e-02 8.268015e-03 4.386552e-02 5.078048e-02 6.618302e-02
<VARIANCE> 36
 3.470472e+00 1.815009e+00 1.685031e+00 1.884657e+00 1.507618e+00 1.369648e+00 1.163510e+00 8.625007e-01 7.500580e-01 5.568061e-01 3.989062e-01 2.394866e-01 1.000000e-04 1.000000e-04 1.000000e-04 1.000000e-04 1.000000e-04 1.000000e-04 1.000000e-04 1.000000e-04 1.000000e-04 1.000000e-04 1.000000e-04 1.000000e-04 1.000000e-04 1.000000e-04 1.000000e-04 1.069707e-04 1.045946e-04 1.810989e-04 2.763217e-04 4.148999e-04 4.773157e-04 5.881042e-04 8.511223e-04 1.416480e-03
<GCONST> -1.431092e+02
<MIXTURE> 32 1.685966e-05
<MEAN> 36
 -2.179184e+00 -2.672825e+00 -3.721107e+00 8.517808e+00 1.255291e+00 -1.236782e+01 1.721566e+01 -2.870237e+00 9.921475e-01 -9.715843e+00 1.483819e+01 -1.147550e+00 8.299827e-04 -4.080629e-03 -2.788126e-03 3.567314e-03 7.759952e-03 -3.848457e-03 -7.392121e-03 -6.036758e-04 6.907821e-03 2.871704e-03 -3.623390e-03 -3.908682e-03 -3.902797e-02 4.885065e-02 9.516398e-02 3.371263e-02 -9.835446e-02 1.593866e-02 2.660179e-02 1.713444e-02 -7.248934e-03 -2.149601e-02 3.663959e-03 9.486499e-03
<VARIANCE> 36
 1.000000e-04 1.000000e-04 1.000000e-04 1.000000e-04 1.000000e-04 1.000000e-04 1.000000e-04 1.000000e-04 1.000000e-04 1.000000e-04 1.000000e-04 1.000000e-04 1.000000e-04 1.000000e-04 1.000000e-04 1.000000e-04 1.000000e-04 1.000000e-04 1.000000e-04 1.000000e-04 1.000000e-04 1.000000e-04 1.000000e-04 1.000000e-04 1.000000e-04 1.000000e-04 1.000000e-04 1.000000e-04 1.000000e-04 1.000000e-04 1.000000e-04 1.000000e-04 1.000000e-04 1.000000e-04 1.000000e-04 1.000000e-04
<GCONST> -2.654087e+02
<MIXTURE> 33 1.266238e-03
<MEAN> 36
 3.215810e+00 2.459445e+00 2.601101e+00 5.461944e+00 5.393322e+00 -1.157489e+00 3.993170e-02 3.147687e-01 1.388452e-01 5.882562e-01 3.413039e-01 2.025943e-02 -3.927583e-01 1.774373e+00 2.136212e+00 1.310149e+00 1.794219e+00 7.241476e-01 2.545415e-01 -6.256613e-01 -2.769908e-01 -5.090621e-02 -1.098770e-01 -3.550880e-02 -5.012644e-02 -3.427544e-01 -4.633409e-01 -4.707639e-01 -5.894067e-01 -9.776317e-02 1.644812e-01 2.186276e-01 3.733765e-02 -4.619643e-02 -3.998672e-02 -6.908179e-03
<VARIANCE> 36
 1.443827e+01 1.680795e+01 1.790900e+01 2.112073e+01 2.510451e+01 2.830696e+01 2.813622e+01 2.562421e+01 2.155690e+01 1.858469e+01 1.774300e+01 1.434360e+01 2.002610e+00 1.711677e+00 2.152034e+00 2.632770e+00 3.399719e+00 4.483146e+00 4.385014e+00 3.947604e+00 3.393839e+00 3.034505e+00 2.679998e+00 2.181753e+00 8.994435e-02 1.789445e-01 2.346348e-01 2.924761e-01 3.084733e-01 3.509196e-01 4.390258e-01 4.056853e-01 3.696541e-01 3.268767e-01 3.165642e-01 2.575805e-01
<GCONST> 9.953258e+01
<MIXTURE> 34 2.030964e-03
<MEAN> 36
 3.498092e+00 7.865584e+00 7.446284e+00 6.462726e+00 4.822907e+00 -6.431062e-01 -2.320790e+00 -6.809857e-01 2.888541e+00 4.951816e+00 2.066892e-01 -7.760285e-01 -1.153611e-01 1.046409e-01 5.525381e-02 1.960720e-01 9.253414e-02 5.028760e-02 -7.452642e-02 1.567908e-02 6.357497e-02 9.316194e-02 1.136016e-01 2.300504e-02 -7.553426e-02 -2.595805e-01 -3.148917e-01 -5.107524e-01 -2.830034e-01 7.264791e-02 3.780323e-01 6.558987e-02 -4.197590e-01 -5.857322e-01 -4.802741e-02 1.424587e-01
<VARIANCE> 36
 8.666273e+00 2.245889e+01 1.527630e+01 2.104655e+01 3.003484e+01 3.216007e+01 2.926928e+01 3.371608e+01 2.398428e+01 2.052639e+01 1.998280e+01 1.755786e+01 2.866020e-01 7.222658e-01 9.494383e-01 1.615029e+00 1.855496e+00 2.197795e+00 2.236825e+00 2.522558e+00 2.426067e+00 2.366440e+00 2.155406e+00 1.830135e+00 7.570089e-02 1.642604e-01 2.156359e-01 2.727824e-01 3.680263e-01 4.172637e-01 3.589770e-01 4.522470e-01 3.660961e-01 3.208757e-01 3.316709e-01 2.990342e-01
<GCONST> 9.277867e+01
<MIXTURE> 35 1.053298e-03
<MEAN> 36
 1.026328e+01 4.153482e+00 -8.299242e+00 -1.434304e+00 6.500622e+00 1.129305e+00 -7.096701e+00 -8.183235e+00 -5.149597e+00 2.304882e+00 7.734413e-01 6.498760e-02 3.970188e-01 1.253036e+00 8.101238e-02 -8.027265e-01 -3.415387e-02 1.988213e+00 1.645593e+00 -5.774825e-01 -1.399314e+00 -7.959942e-01 3.534967e-01 4.209602e-01 -5.536892e-01 -3.983256e-01 5.772865e-01 2.457240e-01 -7.403733e-01 -6.351655e-01 5.724283e-01 1.110158e+00 5.381902e-01 -3.744811e-01 -2.850493e-01 4.121684e-02
<VARIANCE> 36
 6.186168e+00 1.223110e+01 2.172252e+01 2.335712e+01 2.158884e+01 2.572591e+01 2.855989e+01 2.543108e+01 2.583456e+01 2.475752e+01 2.396618e+01 2.075269e+01 8.734074e-01 1.513419e+00 2.688016e+00 2.929769e+00 2.668257e+00 3.454336e+00 3.962422e+00 3.275510e+00 3.108570e+00 3.107322e+00 2.507740e+00 2.060391e+00 1.637567e-01 2.445330e-01 3.665913e-01 3.533902e-01 4.518529e-01 5.727978e-01 6.026737e-01 5.466676e-01 5.675228e-01 4.809889e-01 4.797363e-01 4.106889e-01
<GCONST> 1.026880e+02
<MIXTURE> 36 9.559480e-04
<MEAN> 36
 -4.789402e+00 1.242991e-01 -2.229009e+00 -2.098465e-01 1.071493e+00 -6.210075e-01 -6.282785e+00 2.777267e+00 3.065671e+00 5.722778e-01 1.426906e+00 1.552664e+00 4.361976e-01 -1.462622e-01 3.337096e-01 1.439261e-03 -4.720585e-01 -1.539237e-01 -1.194411e-02 5.706255e-01 1.763463e+00 1.588854e+00 2.877724e-01 4.781556e-01 -4.578777e-02 -1.432147e-01 7.886570e-02 3.640537e-01 -1.491555e-01 2.174384e-01 1.148262e+00 -3.332229e-01 -4.405378e-01 -1.144820e-01 -2.977212e-01 -2.906305e-01
<VARIANCE> 36
 6.940201e+00 5.033602e+00 7.540268e+00 7.598236e+00 1.089747e+01 9.540362e+00 8.461052e+00 6.292727e+00 1.365227e+01 1.071763e+01 1.206054e+01 5.823873e+00 1.701378e-01 2.130471e-01 3.041598e-01 5.434557e-01 8.104311e-01 8.508490e-01 2.021055e+00 1.469670e+00 1.732055e+00 1.553709e+00 1.485864e+00 1.616061e+00 4.592499e-02 4.788160e-02 9.726325e-02 1.446166e-01 2.024398e-01 1.420978e-01 2.233881e-01 1.744623e-01 3.507821e-01 2.071617e-01 2.790314e-01 2.107263e-01
<GCONST> 6.645462e+01
<MIXTURE> 37 1.199698e-03
<MEAN> 36
 -6.257494e+00 -3.689857e+00 -4.036036e+00 -8.782195e-01 -1.446782e+00 6.466780e-01 -2.220832e+00 2.139350e-01 -1.310198e+00 -9.236189e-01 -4.043663e-01 -3.122241e-01 1.610770e+00 9.504793e-01 1.039132e+00 6.323786e-01 5.446956e-01 1.389270e-01 2.257047e-01 -2.908876e-02 1.107598e-01 1.407009e-01 -2.408101e-02 1.247042e-02 8.251984e-01 5.830482e-01 5.878503e-01 3.519092e-01 3.274474e-01 4.600200e-02 3.142190e-01 1.893502e-02 1.897240e-01 1.193775e-01 7.201888e-02 4.007980e-02
<VARIANCE> 36
 8.748016e+00 9.897571e+00 1.045777e+01 1.109027e+01 1.196292e+01 1.469108e+01 1.038994e+01 1.304601e+01 1.323821e+01 1.109297e+01 9.086761e+00 8.966218e+00 1.782090e+00 9.239723e-01 1.023302e+00 1.409979e+00 1.599293e+00 1.794224e+00 1.784072e+00 1.856269e+00 1.760855e+00 1.610859e+00 1.482646e+00 1.273556e+00 3.044309e-01 1.964465e-01 2.205821e-01 2.337494e-01 2.763616e-01 3.334931e-01 2.493541e-01 2.846170e-01 3.032428e-01 2.561482e-01 2.130967e-01 2.048985e-01
<GCONST> 8.314350e+01
<MIXTURE> 38 2.093723e-03
<MEAN> 36
 4.206675e+00 7.065614e+00 5.893332e+00 4.270867e+00 2.224072e+00 -2.919127e+00 3.713535e+00 2.170327e+00 -1.517908e+00 -3.387865e+00 -6.782027e-01 3.071046e+00 -8.742024e-02 1.189233e-01 -1.297569e-02 1.305388e-01 1.360332e-01 1.509889e-01 -3.140074e-02 1.209722e-01 9.560387e-02 -7.936962e-02 -1.007203e-02 2.573326e-02 -9.242749e-02 -2.272528e-01 -1.615838e-01 -2.057745e-01 -4.902687e-02 1.642715e-01 -3.529777e-01 -4.090942e-01 7.154959e-02 5.288746e-01 3.941870e-02 -3.882901e-01
<VARIANCE> 36
 7.702633e+00 1.838742e+01 1.448219e+01 2.325844e+01 2.658125e+01 3.790215e+01 2.485887e+01 3.139332e+01 3.174035e+01 1.657216e+01 2.384959e+01 1.661087e+01 2.824889e-01 7.675642e-01 8.911392e-01 1.362872e+00 1.770726e+00 2.095183e+00 2.261232e+00 2.378945e+00 2.345436e+00 2.124984e+00 2.006660e+00 1.733654e+00 5.436042e-02 1.346941e-01 1.695379e-01 2.108258e-01 3.496687e-01 3.459906e-01 2.803133e-01 3.880869e-01 3.818190e-01 2.035649e-01 3.596382e-01 2.558569e-01
<GCONST> 8.975164e+01
<MIXTURE> 39 9.705452e-04
<MEAN> 36
 -7.751384e+00 -2.696757e+00 -4.317158e+00 -4.938654e-01 -7.132259e-01 3.582318e+00 5.059274e+00 2.418328e+00 -4.716803e+00 -2.530348e+00 2.396054e+00 -2.117736e+00 7.648002e-02 2.119216e-02 2.641416e-02 -4.864563e-02 2.861676e-01 3.019304e-01 4.003658e-01 7.574912e-01 7.945333e-01 4.708170e-01 3.959291e-01 -3.931026e-01 4.786214e-01 2.453690e-01 4.136780e-01 3.104614e-01 1.754222e-01 -3.536243e-01 -7.785890e-01 -2.652172e-01 6.418946e-01 3.346205e-01 -3.353001e-01 2.855893e-01
<VARIANCE> 36
 5.935364e+00 4.348996e+00 4.663989e+00 7.194115e+00 7.886988e+00 1.029411e+01 2.067293e+01 1.182181e+01 1.051741e+01 1.253986e+01 1.096577e+01 9.353248e+00 3.380862e-01 3.299999e-01 4.965436e-01 9.515927e-01 1.074718e+00 1.161280e+00 2.285059e+00 1.664285e+00 2.295752e+00 1.325283e+00 2.012983e+00 1.556882e+00 1.556401e-01 6.440230e-02 6.537560e-02 1.289258e-01 1.362151e-01 2.012851e-01 4.887752e-01 2.047804e-01 2.590583e-01 2.221046e-01 2.283578e-01 1.869973e-01
<GCONST> 7.191917e+01
<MIXTURE> 40 1.448843e-03
<MEAN> 36
 5.264123e+00 6.196902e-01 4.924611e+00 5.186178e+00 1.626674e+00 -5.332363e+00 -3.683811e+00 5.543858e+00 -4.809433e+00 -2.216133e+00 8.270304e-01 2.201961e-02 1.783804e-01 6.196491e-01 -3.807517e-01 1.238346e+00 2.363874e+00 5.791407e-01 -8.514815e-01 7.178285e-01 1.134395e+00 -7.653697e-01 -4.600926e-01 2.123670e-01 -3.242761e-01 7.170875e-02 -7.958417e-02 -7.129017e-01 -4.734497e-01 3.807030e-01 4.688798e-01 -8.563590e-01 3.482622e-01 5.551459e-01 -2.200806e-01 -3.995122e-02
<VARIANCE> 36
 7.164997e+00 1.478801e+01 1.660873e+01 2.261638e+01 2.948918e+01 2.718913e+01 3.469631e+01 2.330430e+01 3.215884e+01 2.521934e+01 2.282101e+01 1.467834e+01 7.141253e-01 1.383404e+00 2.672621e+00 2.394356e+00 3.529052e+00 3.782122e+00 3.570061e+00 3.592888e+00 3.666061e+00 2.996749e+00 2.651897e+00 2.098132e+00 8.843073e-02 1.769831e-01 2.786323e-01 3.437439e-01 4.663304e-01 4.225745e-01 5.150054e-01 3.909836e-01 5.294976e-01 4.357361e-01 4.148832e-01 2.860067e-01
<GCONST> 1.004216e+02
<MIXTURE> 41 1.177542e-03
<MEAN> 36
 -4.873796e+00 -2.306943e+00 -2.324375e+00 2.733094e-01 3.536617e+00 4.281950e+00 -1.696865e+00 2.310156e+00 1.021559e+00 8.319014e-01 -2.641013e+00 -5.327265e-02 2.556430e-01 5.083942e-02 4.892890e-01 6.664611e-01 3.015694e-01 1.837450e-01 4.116759e-01 1.054327e-01 7.161227e-01 6.500886e-01 -1.224426e-01 3.314413e-01 8.114015e-03 1.522083e-01 1.048120e-01 1.516881e-01 -4.898669e-01 -4.893496e-01 2.306390e-01 -2.526163e-01 -1.820617e-01 -1.519269e-01 4.276757e-01 -5.239488e-02
<VARIANCE> 36
 7.072419e+00 4.213585e+00 4.881508e+00 6.071554e+00 9.055718e+00 6.393272e+00 8.566590e+00 9.058544e+00 1.231411e+01 8.344455e+00 8.382895e+00 5.804346e+00 2.875228e-01 3.728307e-01 6.486540e-01 1.253583e+00 9.637440e-01 1.478161e+00 1.506948e+00 1.953030e+00 1.462800e+00 1.539219e+00 1.776351e+00 1.738282e+00 6.844124e-02 4.969582e-02 8.342152e-02 1.277135e-01 1.601057e-01 1.228520e-01 1.825769e-01 1.798583e-01 2.320488e-01 1.741939e-01 1.734554e-01 1.420749e-01
<GCONST> 6.632510e+01
<MIXTURE> 42 1.261954e-03
<MEAN> 36
 -8.263271e-01 6.184856e+00 1.531614e+01 -6.746251e+00 1.450426e+00 5.708602e+00 -8.167119e+00 -7.811947e-01 -2.374788e+00 -3.029289e+00 -3.421659e+00 -4.103028e-02 -7.143111e-01 2.016348e+00 2.485458e-01 -1.051582e+00 2.726889e+00 5.289423e-02 -8.304482e-01 1.285692e+00 -2.095909e-02 -8.164300e-01 3.907699e-01 -1.057799e-01 1.623971e-01 -2.742410e-01 -1.216556e+00 8.442746e-01 -1.177302e-01 -9.330826e-01 8.017054e-01 1.053905e-01 -8.201206e-03 3.618836e-01 4.304645e-01 -9.271767e-02
<VARIANCE> 36
 1.176828e+01 2.217448e+01 2.074373e+01 2.634682e+01 4.194399e+01 3.340863e+01 3.526691e+01 3.231546e+01 2.806586e+01 2.722256e+01 2.138005e+01 2.023651e+01 1.544519e+00 2.345344e+00 3.455288e+00 3.957985e+00 3.607821e+00 4.188210e+00 3.726854e+00 3.764936e+00 3.522916e+00 3.108771e+00 3.002029e+00 2.543752e+00 2.120220e-01 3.299651e-01 4.465211e-01 4.759292e-01 6.549189e-01 5.623413e-01 6.746387e-01 6.537378e-01 6.063575e-01 5.966461e-01 4.318177e-01 4.212385e-01
<GCONST> 1.099625e+02
<MIXTURE> 43 1.604022e-03
<MEAN> 36
 -3.394612e+00 -3.522709e-01 -2.277687e-01 2.516669e+00 3.994745e+00 3.973476e+00 -4.256419e-01 1.229284e+00 6.622196e-01 -1.621598e+00 -6.949791e+00 -3.041937e+00 2.258954e-01 1.481441e-01 3.052801e-01 3.690035e-01 3.955169e-01 4.202476e-01 4.080522e-01 3.331476e-01 4.310829e-01 2.295021e-01 -2.628560e-01 -1.385789e-01 1.371069e-01 -3.777283e-02 -1.109213e-01 -2.353299e-01 -5.354343e-01 -4.852692e-01 5.187311e-02 -9.210157e-02 -6.666932e-02 2.530055e-01 1.054195e+00 4.200815e-01
<VARIANCE> 36
 1.493259e+01 9.309980e+00 1.017899e+01 1.034904e+01 1.180718e+01 1.579926e+01 1.794087e+01 1.345455e+01 1.171883e+01 1.159433e+01 8.493548e+00 1.304869e+01 1.980750e+00 1.137282e+00 1.290465e+00 1.555547e+00 2.017407e+00 2.233833e+00 2.238769e+00 2.329995e+00 2.318376e+00 2.244845e+00 2.359069e+00 1.768088e+00 2.425276e-01 1.468011e-01 1.674744e-01 1.887583e-01 2.162388e-01 3.070897e-01 3.967315e-01 2.806011e-01 2.616574e-01 2.573327e-01 1.799351e-01 2.843863e-01
<GCONST> 8.646662e+01
<MIXTURE> 44 3.932446e-04
<MEAN> 36
 1.915145e+00 2.105537e+00 1.705940e+00 1.668770e+00 4.434799e+00 7.102875e+00 6.605990e+00 4.468561e+00 1.881417e+00 -4.997475e+00 -1.220487e+01 -1.520011e+01 2.959982e-01 -7.833712e-03 3.268278e-02 1.588896e-02 -9.470399e-02 6.743628e-02 6.804744e-01 1.524367e+00 2.819274e+00 3.772974e+00 3.445762e+00 1.675929e+00 -1.983543e-01 -1.707860e-01 -1.696658e-01 -1.790594e-01 -3.367970e-01 -5.837126e-01 -5.979097e-01 -4.723229e-01 -2.349626e-01 4.362536e-01 1.302064e+00 1.698895e+00
<VARIANCE> 36
 2.301486e+01 5.032821e+01 4.688112e+01 4.447741e+01 4.528260e+01 4.019517e+01 5.024926e+01 5.435820e+01 7.552346e+01 9.434196e+01 8.821128e+01 7.930847e+01 1.678716e+00 2.415631e+00 2.614255e+00 3.554474e+00 3.804882e+00 4.237232e+00 5.428845e+00 6.305149e+00 7.368364e+00 7.517054e+00 9.170979e+00 1.251798e+01 3.361990e-01 3.828894e-01 4.447748e-01 5.855419e-01 6.624771e-01 6.819932e-01 8.763045e-01 1.031699e+00 1.343968e+00 1.768519e+00 1.747782e+00 1.523006e+00
<GCONST> 1.302586e+02
<MIXTURE> 45 1.218107e-03
<MEAN> 36
 6.929137e+00 -5.750360e+00 -6.055687e+00 7.818698e-01 -3.183228e+00 -7.899972e+00 -7.560872e-01 8.159255e+00 5.861599e-01 -1.542249e+00 8.070549e-01 7.469794e-01 1.111384e-01 1.975832e+00 1.618499e+00 9.710960e-01 2.027804e+00 7.049799e-02 -1.860254e+00 -1.311744e+00 2.788407e-01 3.651813e-01 -5.288649e-01 2.263001e-01 -4.919607e-01 4.027458e-01 5.655070e-01 8.862190e-02 4.452423e-01 6.754013e-01 4.694739e-01 -7.714034e-01 -2.016473e-01 2.011083e-01 -1.414961e-01 -1.464925e-01
<VARIANCE> 36
 9.800710e+00 1.548980e+01 2.619877e+01 1.983323e+01 2.649783e+01 2.992515e+01 4.472468e+01 2.754893e+01 2.641562e+01 2.086152e+01 1.966537e+01 1.565271e+01 9.998189e-01 1.454870e+00 2.724459e+00 2.413383e+00 4.120410e+00 3.764764e+00 4.435734e+00 3.440611e+00 3.008560e+00 2.892182e+00 2.305404e+00 2.034439e+00 1.448735e-01 2.644942e-01 3.868902e-01 3.136451e-01 4.979208e-01 5.803133e-01 6.585149e-01 5.212783e-01 4.831424e-01 4.017881e-01 3.905445e-01 3.136040e-01
<GCONST> 1.032861e+02
<MIXTURE> 46 5.417900e-04
<MEAN> 36
 6.206095e+00 6.615367e-01 3.594992e-01 3.898690e+00 2.458671e+00 2.903524e+00 7.331709e-01 2.036054e+00 9.071989e-01 5.585997e-01 9.731095e-01 2.606516e-01 2.879515e+00 4.008890e-01 6.777744e-01 3.138203e-01 4.705997e-01 2.278848e-01 3.447951e-01 1.991161e-01 1.805511e-01 8.994562e-02 1.995476e-01 1.001407e-01 -8.383715e-01 -1.341009e-01 -2.026120e-01 -1.172830e-01 -1.507879e-01 -8.294433e-02 -1.104235e-01 -7.139937e-02 -7.429669e-02 -4.974209e-02 -6.177914e-02 -4.002938e-02
<VARIANCE> 36
 4.749247e+00 4.222943e+00 4.166134e+00 4.076415e+00 4.054332e+00 3.534320e+00 3.066770e+00 2.289919e+00 1.937500e+00 1.838599e+00 1.241326e+00 9.188662e-01 8.417605e-01 4.869127e-01 6.920631e-01 1.166715e+00 1.075053e+00 1.259709e+00 1.430143e+00 1.418482e+00 1.250002e+00 1.124316e+00 1.088571e+00 9.015725e-01 1.346916e-01 3.869485e-02 5.371346e-02 8.540662e-02 8.275089e-02 9.623245e-02 1.125955e-01 1.108126e-01 1.044548e-01 9.690746e-02 9.760125e-02 8.156796e-02
<GCONST> 4.894986e+01
<MIXTURE> 47 4.593834e-04
<MEAN> 36
 4.843401e+00 1.009711e+00 6.073675e-01 4.059611e+00 3.418903e+00 2.314798e+00 1.349011e+00 1.534865e+00 7.583641e-01 7.946262e-01 1.025985e+00 6.524284e-01 -0.000000e+00 -0.000000e+00 -0.000000e+00 -0.000000e+00 -0.000000e+00 -0.000000e+00 -0.000000e+00 -0.000000e+00 -0.000000e+00 -0.000000e+00 -0.000000e+00 -0.000000e+00 -0.000000e+00 -0.000000e+00 -0.000000e+00 -0.000000e+00 -0.000000e+00 -0.000000e+00 -0.000000e+00 -0.000000e+00 -0.000000e+00 -0.000000e+00 -0.000000e+00 -0.000000e+00
<VARIANCE> 36
 5.692847e-01 1.858195e-01 6.533086e-01 6.930688e-01 1.968765e-01 6.462898e-01 1.120813e-01 5.331826e-02 9.457777e-02 3.289922e-02 1.502504e-01 3.789679e-02 1.000000e-04 1.000000e-04 1.000000e-04 1.000000e-04 1.000000e-04 1.000000e-04 1.000000e-04 1.000000e-04 1.000000e-04 1.000000e-04 1.000000e-04 1.000000e-04 1.000000e-04 1.000000e-04 1.000000e-04 1.000000e-04 1.000000e-04 1.000000e-04 1.000000e-04 1.000000e-04 1.000000e-04 1.000000e-04 1.000000e-04 1.000000e-04
<GCONST> -1.760460e+02
<MIXTURE> 48 1.032799e-03
<MEAN> 36
 5.428790e+00 1.734598e+00 1.764149e+00 3.083481e+00 2.850754e+00 2.726727e+00 1.204684e+00 1.622949e+00 3.549072e-01 1.011593e-03 3.227118e-01 -5.577305e-01 2.564376e-43 2.564376e-43 2.564376e-43 2.564376e-43 2.564376e-43 2.564376e-43 2.564376e-43 2.564376e-43 2.564376e-43 2.564376e-43 2.564376e-43 2.564376e-43 2.564376e-43 2.564376e-43 2.564376e-43 2.564376e-43 2.564376e-43 2.564376e-43 2.564376e-43 2.564376e-43 2.564376e-43 2.564376e-43 2.564376e-43 2.564376e-43
<VARIANCE> 36
 2.476250e+00 7.687755e-01 7.107970e-01 1.047646e+00 3.714350e-01 5.973775e-01 4.146339e-01 6.728920e-01 6.184507e-01 9.611988e-02 1.649839e-01 1.287808e-01 1.000000e-04 1.000000e-04 1.000000e-04 1.000000e-04 1.000000e-04 1.000000e-04 1.000000e-04 1.000000e-04 1.000000e-04 1.000000e-04 1.000000e-04 1.000000e-04 1.000000e-04 1.000000e-04 1.000000e-04 1.000000e-04 1.000000e-04 1.000000e-04 1.000000e-04 1.000000e-04 1.000000e-04 1.000000e-04 1.000000e-04 1.000000e-04
<GCONST> -1.639920e+02
<MIXTURE> 49 3.253478e-04
<MEAN> 36
 4.218724e+00 -9.402654e-01 7.139106e-01 1.660103e+00 2.006643e+00 2.097198e+00 1.262357e+00 2.363716e+00 1.603369e+00 7.463421e-01 1.260225e+00 2.214515e-01 -0.000000e+00 -0.000000e+00 -0.000000e+00 -0.000000e+00 -0.000000e+00 -0.000000e+00 -0.000000e+00 -0.000000e+00 -0.000000e+00 -0.000000e+00 -0.000000e+00 -0.000000e+00 -0.000000e+00 -0.000000e+00 -0.000000e+00 -0.000000e+00 -0.000000e+00 -0.000000e+00 -0.000000e+00 -0.000000e+00 -0.000000e+00 -0.000000e+00 -0.000000e+00 -0.000000e+00
<VARIANCE> 36
 4.837364e-01 9.933528e-02 1.065371e+00 4.674660e-02 7.555357e-01 2.166492e-01 3.081708e-02 7.519267e-02 3.343341e-01 1.319411e-02 7.175045e-02 7.615240e-02 1.000000e-04 1.000000e-04 1.000000e-04 1.000000e-04 1.000000e-04 1.000000e-04 1.000000e-04 1.000000e-04 1.000000e-04 1.000000e-04 1.000000e-04 1.000000e-04 1.000000e-04 1.000000e-04 1.000000e-04 1.000000e-04 1.000000e-04 1.000000e-04 1.000000e-04 1.000000e-04 1.000000e-04 1.000000e-04 1.000000e-04 1.000000e-04
<GCONST> -1.794301e+02
<MIXTURE> 50 7.045164e-04
<MEAN> 36
 6.664401e+00 2.212808e+00 9.695864e-01 4.352236e+00 2.127846e+00 3.038421e+00 6.317509e-01 1.335066e+00 1.144664e+00 -3.971675e-01 7.737491e-01 1.687315e-01 1.401298e-45 1.401298e-45 1.401298e-45 1.401298e-45 1.401298e-45 1.401298e-45 1.401298e-45 1.401298e-45 1.401298e-45 1.401298e-45 1.401298e-45 1.401298e-45 1.401298e-45 1.401298e-45 1.401298e-45 1.401298e-45 1.401298e-45 1.401298e-45 1.401298e-45 1.401298e-45 1.401298e-45 1.401298e-45 1.401298e-45 1.401298e-45
<VARIANCE> 36
 8.370464e-01 1.423833e+00 4.614799e-01 9.656659e-01 1.783146e-01 5.121514e-01 6.962977e-01 9.033507e-01 4.013687e-01 3.148497e-01 2.877121e-01 1.339639e-01 1.000000e-04 1.000000e-04 1.000000e-04 1.000000e-04 1.000000e-04 1.000000e-04 1.000000e-04 1.000000e-04 1.000000e-04 1.000000e-04 1.000000e-04 1.000000e-04 1.000000e-04 1.000000e-04 1.000000e-04 1.000000e-04 1.000000e-04 1.000000e-04 1.000000e-04 1.000000e-04 1.000000e-04 1.000000e-04 1.000000e-04 1.000000e-04
<GCONST> -1.636989e+02
<MIXTURE> 51 2.719739e-04
<MEAN> 36
 -1.708308e+00 7.456797e-01 1.520778e+00 2.794122e+00 -2.040072e+00 -2.800673e+00 4.542188e+00 -5.717133e-01 3.074388e-03 -2.696411e+00 3.418567e+00 -5.364085e-02 -1.998103e-01 2.443160e-01 4.797000e-01 1.703973e-01 -4.991417e-01 8.427592e-02 1.370368e-01 8.528458e-02 -3.750873e-02 -1.058603e-01 1.714482e-02 4.916210e-02 1.960829e-02 -2.405484e-02 -4.728713e-02 -1.734700e-02 4.848197e-02 -7.810125e-03 -1.274357e-02 -8.340257e-03 2.853569e-03 1.043157e-02 -1.901479e-03 -4.350469e-03
<VARIANCE> 36
 4.707634e-02 4.135495e-02 4.468827e-03 1.945527e-01 1.221679e-02 2.040445e-01 5.469056e-01 4.393360e-02 2.235875e-02 1.926677e-01 4.409977e-01 1.781380e-04 1.000000e-04 1.000000e-04 1.000000e-04 1.000000e-04 1.000000e-04 1.000000e-04 1.000000e-04 1.000000e-04 1.000000e-04 1.000000e-04 1.000000e-04 1.000000e-04 1.000000e-04 1.000000e-04 1.000000e-04 1.000000e-04 1.000000e-04 1.000000e-04 1.000000e-04 1.000000e-04 1.000000e-04 1.000000e-04 1.000000e-04 1.000000e-04
<GCONST> -1.927958e+02
<MIXTURE> 52 7.485467e-04
<MEAN> 36
 4.779595e+00 6.307384e-01 1.497987e+00 1.479241e+00 1.867774e+00 1.177127e+00 1.091290e+00 1.014685e+00 5.296040e-01 5.453466e-01 4.431551e-01 1.880598e-01 -0.000000e+00 -0.000000e+00 -0.000000e+00 -0.000000e+00 -0.000000e+00 -0.000000e+00 -0.000000e+00 -0.000000e+00 -0.000000e+00 -0.000000e+00 -0.000000e+00 -0.000000e+00 -0.000000e+00 -0.000000e+00 -0.000000e+00 -0.000000e+00 -0.000000e+00 -0.000000e+00 -0.000000e+00 -0.000000e+00 -0.000000e+00 -0.000000e+00 -0.000000e+00 -0.000000e+00
<VARIANCE> 36
 8.109499e-01 1.865565e-01 4.337280e-01 2.790328e-01 7.734676e-02 1.612011e-01 1.001741e-01 3.471084e-02 1.224359e-02 5.103363e-02 3.662463e-02 8.934942e-03 1.000000e-04 1.000000e-04 1.000000e-04 1.000000e-04 1.000000e-04 1.000000e-04 1.000000e-04 1.000000e-04 1.000000e-04 1.000000e-04 1.000000e-04 1.000000e-04 1.000000e-04 1.000000e-04 1.000000e-04 1.000000e-04 1.000000e-04 1.000000e-04 1.000000e-04 1.000000e-04 1.000000e-04 1.000000e-04 1.000000e-04 1.000000e-04
<GCONST> -1.843339e+02
<MIXTURE> 53 5.526408e-04
<MEAN> 36
 5.034880e+00 4.137379e-01 2.627648e+00 2.823956e+00 3.894297e+00 2.774028e+00 1.601350e+00 2.568401e+00 8.425080e-01 1.500993e+00 7.395511e-01 7.966818e-01 -1.401298e-45 -1.401298e-45 -1.401298e-45 -1.401298e-45 -1.401298e-45 -1.401298e-45 -1.401298e-45 -1.401298e-45 -1.401298e-45 -1.401298e-45 -1.401298e-45 -1.401298e-45 -1.401298e-45 -1.401298e-45 -1.401298e-45 -1.401298e-45 -1.401298e-45 -1.401298e-45 -1.401298e-45 -1.401298e-45 -1.401298e-45 -1.401298e-45 -1.401298e-45 -1.401298e-45
<VARIANCE> 36
 2.235896e+00 3.287946e-01 4.656996e-01 3.702565e-01 3.451098e-01 4.187174e-01 5.646065e-01 3.732619e-01 2.143305e-01 4.780589e-02 7.214035e-01 2.954036e-01 1.000000e-04 1.000000e-04 1.000000e-04 1.000000e-04 1.000000e-04 1.000000e-04 1.000000e-04 1.000000e-04 1.000000e-04 1.000000e-04 1.000000e-04 1.000000e-04 1.000000e-04 1.000000e-04 1.000000e-04 1.000000e-04 1.000000e-04 1.000000e-04 1.000000e-04 1.000000e-04 1.000000e-04 1.000000e-04 1.000000e-04 1.000000e-04
<GCONST> -1.665684e+02
<MIXTURE> 54 2.648888e-04
<MEAN> 36
 5.250869e+00 8.057882e-01 1.364033e+00 4.517910e+00 1.447495e+00 5.467550e+00 -1.655416e-02 2.989789e+00 1.997293e+00 8.214573e-01 1.435885e+00 2.249116e-01 0.000000e+00 0.000000e+00 0.000000e+00 0.000000e+00 0.000000e+00 0.000000e+00 0.000000e+00 0.000000e+00 0.000000e+00 0.000000e+00 0.000000e+00 0.000000e+00 0.000000e+00 0.000000e+00 0.000000e+00 0.000000e+00 0.000000e+00 0.000000e+00 0.000000e+00 0.000000e+00 0.000000e+00 0.000000e+00 0.000000e+00 0.000000e+00
<VARIANCE> 36
 8.123268e-01 1.731968e+00 1.337388e+00 2.838221e-01 9.110252e-01 1.521960e+00 6.607635e-01 3.611381e-02 5.098438e-01 8.870267e-02 9.669907e-02 2.095719e-01 1.000000e-04 1.000000e-04 1.000000e-04 1.000000e-04 1.000000e-04 1.000000e-04 1.000000e-04 1.000000e-04 1.000000e-04 1.000000e-04 1.000000e-04 1.000000e-04 1.000000e-04 1.000000e-04 1.000000e-04 1.000000e-04 1.000000e-04 1.000000e-04 1.000000e-04 1.000000e-04 1.000000e-04 1.000000e-04 1.000000e-04 1.000000e-04
<GCONST> -1.659155e+02
<MIXTURE> 55 2.284673e-04
<MEAN> 36
 5.579380e+00 2.624223e-01 4.804765e-01 7.085034e-01 9.960465e-01 7.202269e-01 2.643203e-01 3.223762e-01 6.764441e-01 -1.090221e-01 4.539325e-01 2.590643e-01 -0.000000e+00 -0.000000e+00 -0.000000e+00 -0.000000e+00 -0.000000e+00 -0.000000e+00 -0.000000e+00 -0.000000e+00 -0.000000e+00 -0.000000e+00 -0.000000e+00 -0.000000e+00 -0.000000e+00 -0.000000e+00 -0.000000e+00 -0.000000e+00 -0.000000e+00 -0.000000e+00 -0.000000e+00 -0.000000e+00 -0.000000e+00 -0.000000e+00 -0.000000e+00 -0.000000e+00
<VARIANCE> 36
 2.104689e-01 1.007051e-01 8.808620e-03 7.838750e-01 4.141590e-03 9.567909e-02 3.234056e-02 1.671567e-01 2.105312e-02 5.259237e-02 9.232664e-03 5.798076e-02 1.000000e-04 1.000000e-04 1.000000e-04 1.000000e-04 1.000000e-04 1.000000e-04 1.000000e-04 1.000000e-04 1.000000e-04 1.000000e-04 1.000000e-04 1.000000e-04 1.000000e-04 1.000000e-04 1.000000e-04 1.000000e-04 1.000000e-04 1.000000e-04 1.000000e-04 1.000000e-04 1.000000e-04 1.000000e-04 1.000000e-04 1.000000e-04
<GCONST> -1.911064e+02
<MIXTURE> 56 2.385539e-04
<MEAN> 36
 -5.638552e+00 9.071195e-02 3.779551e-02 3.668344e+00 2.743817e+00 2.928812e+00 1.086179e+00 1.997081e+00 7.377344e-01 4.513932e-01 7.228135e-01 1.473831e-01 3.733615e+00 7.166218e-01 1.061333e+00 4.884242e-01 6.599536e-01 3.111255e-01 4.270424e-01 2.054504e-01 2.546936e-01 1.221094e-01 1.761353e-01 1.050132e-01 5.756581e-01 -3.711339e-02 -5.069930e-02 -1.578290e-01 -1.179265e-01 -1.135453e-01 -8.685280e-02 -7.610525e-02 -3.830005e-02 -3.427839e-02 -2.468029e-02 -1.846751e-03
<VARIANCE> 36
 5.474198e+00 4.898717e+00 3.827363e+00 3.512822e+00 2.178399e+00 1.626228e+00 1.628092e+00 1.072055e+00 9.595140e-01 7.460390e-01 5.991831e-01 3.729298e-01 1.921593e-01 1.949360e-01 2.756353e-01 5.732122e-01 5.329548e-01 6.824502e-01 8.935853e-01 9.640903e-01 8.883765e-01 8.359652e-01 9.247972e-01 8.366690e-01 1.411592e-01 5.513413e-02 4.867460e-02 6.868701e-02 6.156771e-02 7.460234e-02 9.304284e-02 9.422030e-02 8.452945e-02 7.793877e-02 8.229050e-02 7.001961e-02
<GCONST> 3.434035e+01
<MIXTURE> 57 1.521791e-04
<MEAN> 36
 5.448931e+00 1.826437e+00 -6.889159e-02 3.346655e+00 4.278881e+00 2.366315e+00 2.605294e+00 1.921424e+00 1.756255e+00 3.718828e-01 1.084839e+00 2.831016e-01 -2.847734e-06 -2.798055e-06 -2.576939e-06 -1.680414e-06 -7.017487e-07 -4.687583e-07 -1.903396e-06 -2.156019e-06 -1.199502e-06 -4.794741e-07 -1.739773e-06 -4.286512e-07 -5.902226e-01 -9.513485e-02 -1.440844e-01 -8.449695e-02 -1.266025e-01 -3.806504e-02 -6.441357e-02 -2.562184e-02 -3.740722e-02 -1.569607e-02 -3.123244e-02 -1.736032e-02
<VARIANCE> 36
 2.637421e+00 2.026197e+00 1.886587e+00 3.171497e+00 1.592350e+00 1.137952e+00 5.589745e-01 7.106309e-01 5.590376e-01 2.915908e-01 1.542325e-01 1.497843e-01 1.000000e-04 1.000000e-04 1.000000e-04 1.000000e-04 1.000000e-04 1.000000e-04 1.000000e-04 1.000000e-04 1.000000e-04 1.000000e-04 1.000000e-04 1.000000e-04 8.123680e-02 2.815316e-02 3.157998e-02 4.729014e-02 4.631834e-02 5.221532e-02 5.355010e-02 4.983817e-02 4.431142e-02 4.179255e-02 3.902727e-02 2.993993e-02
<GCONST> -8.438767e+01
<MIXTURE> 58 2.097807e-04
<MEAN> 36
 7.384653e+00 2.122025e+00 1.556788e+00 3.259671e+00 2.670862e+00 2.109200e+00 1.561951e+00 1.245510e+00 1.010489e+00 7.001746e-01 7.903607e-01 4.842814e-01 -5.618968e-07 -1.431684e-06 -7.003296e-07 -2.026128e-06 -2.070119e-06 -2.010702e-06 2.996052e-07 -6.835938e-07 1.627674e-07 9.677643e-07 5.590640e-07 1.025661e-06 -9.694661e-01 -1.421558e-01 -2.376276e-01 -1.138062e-01 -1.455494e-01 -6.026073e-02 -1.024727e-01 -2.608740e-02 -5.409888e-02 -4.007156e-02 -4.603187e-02 -3.330322e-02
<VARIANCE> 36
 2.377028e+00 1.477451e+00 1.031927e+00 8.071949e-01 7.206202e-01 3.913008e-01 6.209558e-01 3.681571e-01 2.284056e-01 1.900896e-01 2.684869e-01 1.182331e-01 1.000000e-04 1.000000e-04 1.000000e-04 1.000000e-04 1.000000e-04 1.000000e-04 1.000000e-04 1.000000e-04 1.000000e-04 1.000000e-04 1.000000e-04 1.000000e-04 3.361992e-02 4.046716e-02 5.837932e-02 9.211844e-02 9.630520e-02 1.146417e-01 1.197271e-01 1.104766e-01 1.146035e-01 1.001329e-01 8.874980e-02 6.706054e-02
<GCONST> -8.286437e+01
<MIXTURE> 59 1.857975e-04
<MEAN> 36
 6.310574e+00 9.950038e-01 2.132031e+00 2.035831e+00 2.282540e+00 1.746460e+00 7.391397e-01 1.117262e+00 5.635792e-01 3.889517e-01 4.780861e-01 2.660639e-01 -8.382128e-07 -1.219904e-06 -1.325143e-06 5.404245e-07 -4.523843e-07 3.029869e-07 3.360383e-07 6.036843e-07 4.662438e-07 -1.444283e-07 -8.757299e-07 -1.121770e-06 -4.560849e-01 -5.647833e-02 -1.221218e-01 -4.900116e-02 -7.404833e-02 -2.743331e-02 -5.305747e-02 -2.096675e-02 -2.644783e-02 -6.621149e-03 -2.685369e-02 -1.657640e-02
<VARIANCE> 36
 2.794972e+00 6.276910e-01 2.628959e-01 5.245929e-01 1.785915e-01 4.212478e-01 2.743531e-01 1.806678e-01 1.805609e-01 1.157286e-01 1.112230e-01 7.646365e-02 1.000000e-04 1.000000e-04 1.000000e-04 1.000000e-04 1.000000e-04 1.000000e-04 1.000000e-04 1.000000e-04 1.000000e-04 1.000000e-04 1.000000e-04 1.000000e-04 1.054834e-02 1.786945e-02 2.840150e-02 4.907018e-02 4.626843e-02 5.607773e-02 5.769906e-02 5.157394e-02 4.581399e-02 3.960559e-02 3.587398e-02 2.681213e-02
<GCONST> -1.001889e+02
<MIXTURE> 60 1.267787e-05
<MEAN> 36
 5.928811e+00 6.069670e-01 9.018093e-01 -5.713294e-01 2.919071e+00 5.178898e+00 -3.650273e+00 2.002342e+00 5.292038e-01 2.830734e+00 -3.141644e+00 3.184446e-01 -4.870913e-02 9.287083e-03 2.261290e-02 4.000901e-02 -1.852820e-02 -6.286907e-02 3.937538e-02 -2.673233e-02 -2.037667e-03 -1.981695e-02 4.404848e-02 8.337502e-03 -1.074722e+00 -2.357815e-01 -2.155298e-01 4.341255e-01 -3.364313e-01 -9.075226e-01 9.368016e-01 -2.504530e-01 -6.295751e-02 -6.624110e-01 8.141134e-01 -7.501580e-02
<VARIANCE> 36
 2.123698e+00 1.318392e+00 1.039782e+00 2.111268e+00 4.133305e-01 2.779112e+00 3.959142e+00 7.957197e-01 3.353494e-01 1.755829e+00 2.965445e+00 1.178868e-01 1.136473e+01 1.076328e+00 8.983660e-01 4.296115e+00 1.322540e+00 6.113354e+00 6.960864e+00 1.870360e+00 8.939230e-01 3.017963e+00 3.494401e+00 6.864712e-01 2.858755e-01 6.124045e-02 6.769639e-02 4.832465e-01 1.021880e-01 7.506140e-01 1.269630e+00 2.453494e-01 9.882300e-02 5.020360e-01 7.921977e-01 9.324902e-02
<GCONST> 6.125525e+01
<MIXTURE> 61 5.461902e-05
<MEAN> 36
 5.281385e+00 3.166914e-01 8.778088e-01 2.338166e+00 2.209264e+00 1.950516e+00 7.567734e-01 1.401674e+00 5.866074e-01 1.737800e-01 5.826846e-01 8.215962e-02 0.000000e+00 0.000000e+00 0.000000e+00 0.000000e+00 0.000000e+00 0.000000e+00 0.000000e+00 0.000000e+00 0.000000e+00 0.000000e+00 0.000000e+00 0.000000e+00 -9.932107e-01 -9.200870e-02 -1.771380e-01 1.139408e-02 -5.992975e-02 1.420883e-02 -4.325857e-02 -6.336843e-03 -5.010692e-02 -2.074074e-02 -4.095177e-02 -2.356680e-02
<VARIANCE> 36
 3.470842e+00 1.758235e+00 1.717738e+00 1.909704e+00 1.525425e+00 1.362425e+00 1.141848e+00 8.597858e-01 7.033366e-01 5.644572e-01 4.052152e-01 2.313378e-01 1.000000e-04 1.000000e-04 1.000000e-04 1.000000e-04 1.000000e-04 1.000000e-04 1.000000e-04 1.000000e-04 1.000000e-04 1.000000e-04 1.000000e-04 1.000000e-04 1.000000e-04 1.000000e-04 1.000000e-04 1.000000e-04 1.000000e-04 1.000000e-04 1.000000e-04 1.000000e-04 1.000000e-04 1.000000e-04 1.000000e-04 1.000000e-04
<GCONST> -1.544659e+02
<MIXTURE> 62 9.949925e-05
<MEAN> 36
 5.461163e+00 7.492615e-01 8.259266e-01 3.266046e+00 2.997141e+00 2.468929e+00 1.448864e+00 1.782705e+00 9.826918e-01 2.877627e-01 8.516296e-01 2.087108e-01 0.000000e+00 0.000000e+00 0.000000e+00 0.000000e+00 0.000000e+00 0.000000e+00 0.000000e+00 0.000000e+00 0.000000e+00 0.000000e+00 0.000000e+00 0.000000e+00 -3.933648e-01 8.360877e-02 2.420154e-02 7.226073e-02 -1.265881e-02 -4.685955e-03 -3.519725e-02 -3.519384e-04 -4.105904e-03 1.872567e-02 5.077873e-03 4.210014e-03
<VARIANCE> 36
 3.172307e+00 2.557707e+00 2.860973e+00 1.955827e+00 1.753816e+00 1.366548e+00 1.080832e+00 9.051207e-01 8.031804e-01 5.794901e-01 4.353086e-01 2.556571e-01 1.000000e-04 1.000000e-04 1.000000e-04 1.000000e-04 1.000000e-04 1.000000e-04 1.000000e-04 1.000000e-04 1.000000e-04 1.000000e-04 1.000000e-04 1.000000e-04 1.000000e-04 1.000000e-04 1.000000e-04 1.000000e-04 1.000000e-04 1.000000e-04 1.000000e-04 1.000000e-04 1.000000e-04 1.000000e-04 1.000000e-04 1.000000e-04
<GCONST> -1.531774e+02
<MIXTURE> 63 1.200000e-05
<MEAN> 36
 -4.079418e-01 -2.146915e+00 -3.041908e+00 5.392049e+00 3.332397e+00 -8.420425e+00 1.074759e+01 -3.210882e+00 5.558983e-01 -6.486516e+00 8.825871e+00 -7.177092e-01 8.299827e-04 -4.080629e-03 -2.788126e-03 3.567314e-03 7.759952e-03 -3.848457e-03 -7.392121e-03 -6.036758e-04 6.907821e-03 2.871704e-03 -3.623390e-03 -3.908682e-03 -3.902797e-02 4.885065e-02 9.516398e-02 3.371263e-02 -9.835446e-02 1.593866e-02 2.660179e-02 1.713444e-02 -7.248934e-03 -2.149601e-02 3.663959e-03 9.486499e-03
<VARIANCE> 36
 1.000000e-04 1.000000e-04 1.000000e-04 1.000000e-04 1.000000e-04 1.000000e-04 1.000000e-04 1.000000e-04 1.000000e-04 1.000000e-04 1.000000e-04 1.000000e-04 1.000000e-04 1.000000e-04 1.000000e-04 1.000000e-04 1.000000e-04 1.000000e-04 1.000000e-04 1.000000e-04 1.000000e-04 1.000000e-04 1.000000e-04 1.000000e-04 1.000000e-04 1.000000e-04 1.000000e-04 1.000000e-04 1.000000e-04 1.000000e-04 1.000000e-04 1.000000e-04 1.000000e-04 1.000000e-04 1.000000e-04 1.000000e-04
<GCONST> -2.654087e+02
<MIXTURE> 64 1.968002e-05
<MEAN> 36
 -3.577306e+00 -1.301433e+00 -1.899430e+00 1.199490e+01 1.219128e+00 -1.833472e+01 2.391366e+01 -5.443358e+00 8.242813e-01 -1.547014e+01 2.100948e+01 -1.931421e+00 6.114387e-03 7.151818e-03 -5.988580e-03 -6.816101e-03 4.696226e-03 4.253387e-05 5.858230e-03 -2.328205e-03 -5.471790e-03 -7.862091e-03 1.968212e-02 1.612449e-03 -4.285093e-02 4.795149e-02 9.738558e-02 3.637344e-02 -1.022284e-01 1.904634e-02 2.826611e-02 1.625701e-02 -6.247679e-03 -1.944477e-02 2.940159e-03 9.808805e-03
<VARIANCE> 36
 1.000000e-04 1.000000e-04 1.000000e-04 1.000000e-04 1.000000e-04 1.000000e-04 1.000000e-04 1.000000e-04 1.000000e-04 1.000000e-04 1.000000e-04 1.000000e-04 1.000000e-04 1.000000e-04 1.000000e-04 1.000000e-04 1.000000e-04 1.000000e-04 1.000000e-04 1.000000e-04 1.000000e-04 1.000000e-04 1.000000e-04 1.000000e-04 1.000000e-04 1.000000e-04 1.000000e-04 1.000000e-04 1.000000e-04 1.000000e-04 1.000000e-04 1.000000e-04 1.000000e-04 1.000000e-04 1.000000e-04 1.000000e-04
<GCONST> -2.654087e+02
<MIXTURE> 65 1.028867e-03
<MEAN> 36
 2.929535e+00 3.403058e+00 1.161656e+01 1.977977e+00 -1.530278e+00 -1.844985e-01 -8.888434e-01 -3.562631e-01 -8.107826e+00 2.857537e+00 -2.467811e+00 -2.448488e+00 9.510155e-01 -9.618852e-01 -1.868232e+00 2.468730e+00 3.450612e-01 -1.511241e+00 9.928501e-01 1.189704e+00 -5.633244e-01 -2.174618e-02 1.100015e+00 -3.307434e-01 -2.426399e-01 3.534702e-01 -5.348583e-01 -5.240726e-01 6.207745e-01 -6.745226e-02 -4.157867e-01 -3.710158e-02 7.489768e-01 -5.101932e-01 8.124925e-02 3.999553e-01
<VARIANCE> 36
 8.257847e+00 1.257095e+01 1.904619e+01 2.121572e+01 2.605843e+01 3.275299e+01 2.799414e+01 2.854303e+01 2.716896e+01 2.797825e+01 2.757915e+01 2.118029e+01 7.808805e-01 1.113885e+00 2.194285e+00 2.115208e+00 3.032487e+00 3.225471e+00 2.601281e+00 3.153852e+00 3.184732e+00 2.839586e+00 2.423271e+00 2.136112e+00 1.187766e-01 1.792854e-01 3.428312e-01 3.528471e-01 4.618984e-01 4.620288e-01 4.672483e-01 4.737729e-01 4.691410e-01 4.568611e-01 4.808872e-01 3.954812e-01
<GCONST> 1.006569e+02
<MIXTURE> 66 2.272965e-03
<MEAN> 36
 -1.516754e+00 -5.008295e-01 -2.046053e-01 -3.496101e+00 -4.731246e+00 5.293525e+00 -1.410741e+00 -3.630339e+00 5.085555e+00 -2.022713e+00 5.378019e-01 -8.717317e-01 1.764082e-01 1.955796e-01 1.983354e-01 3.277683e-01 1.833967e-01 -5.267733e-02 7.859105e-02 -2.706688e-02 -7.478745e-02 1.522872e-01 5.854572e-02 4.772121e-02 -7.408565e-02 -4.567901e-02 4.598605e-02 3.131234e-01 4.708445e-01 -5.372096e-01 2.185729e-01 3.807490e-01 -5.885684e-01 2.563775e-01 -6.468448e-02 1.216750e-01
<VARIANCE> 36
 2.456998e+01 1.607806e+01 1.542382e+01 2.284369e+01 1.874314e+01 1.717590e+01 2.164090e+01 1.873870e+01 1.389931e+01 1.259251e+01 1.466211e+01 1.020452e+01 1.601541e+00 1.145680e+00 1.395532e+00 2.050416e+00 2.454405e+00 2.454372e+00 2.579127e+00 2.654652e+00 2.583059e+00 2.293613e+00 2.024064e+00 1.778988e+00 2.290100e-01 1.876853e-01 2.009317e-01 2.894690e-01 2.981680e-01 2.923302e-01 3.355604e-01 3.316779e-01 2.545017e-01 2.387493e-01 2.853827e-01 2.067008e-01
<GCONST> 9.213956e+01
<MIXTURE> 67 1.822412e-03
<MEAN> 36
 -3.192235e+00 -5.744699e-01 -4.434365e+00 5.220762e+00 -9.505494e-01 -4.105028e-01 2.760913e+00 -1.470123e+00 7.744610e-01 6.654133e-01 -1.416121e+00 1.023508e+00 5.541187e-01 4.246080e-01 4.004381e-01 1.711723e-01 3.432789e-01 1.221311e-01 4.729555e-02 1.022656e-01 9.756470e-02 8.754654e-02 3.401065e-02 -1.576836e-03 1.933813e-01 3.652373e-02 4.428456e-01 -5.678186e-01 1.922450e-01 1.804382e-01 -3.843396e-01 2.710126e-01 -9.616743e-02 -1.041241e-01 2.206452e-01 -1.546111e-01
<VARIANCE> 36
 1.620535e+01 1.725226e+01 2.983600e+01 1.907877e+01 1.396423e+01 1.106000e+01 1.336925e+01 1.192358e+01 7.645690e+00 7.378155e+00 7.911753e+00 5.647737e+00 3.888001e+00 1.393955e+00 2.081864e+00 1.884401e+00 1.843020e+00 1.888463e+00 2.152545e+00 2.002451e+00 1.840896e+00 1.682533e+00 1.589695e+00 1.346372e+00 3.167996e-01 2.260669e-01 5.079491e-01 3.045637e-01 2.838930e-01 2.329582e-01 2.639871e-01 2.745365e-01 1.921752e-01 1.833027e-01 1.916708e-01 1.456464e-01
<GCONST> 8.697359e+01
<MIXTURE> 68 2.657356e-03
<MEAN> 36
 -8.129604e+00 -4.757650e+00 1.863749e+00 6.876857e-01 -6.185885e+00 -1.292206e+00 3.519115e+00 -1.612055e+00 -4.892541e+00 3.841781e-01 1.047253e+00 5.278994e-01 1.215694e+00 8.154301e-02 -6.104375e-02 4.024371e-01 2.713898e-01 -7.076023e-01 -2.158962e-01 2.166296e-01 -1.939117e-01 -2.471977e-01 -3.118608e-02 8.726693e-02 9.253914e-01 5.124690e-01 -3.417926e-01 -2.699478e-02 7.552916e-01 8.189410e-02 -6.360349e-01 1.865718e-01 6.678383e-01 -4.475322e-02 -1.959304e-01 -6.265708e-02
<VARIANCE> 36
 1.461638e+01 2.177987e+01 2.335246e+01 2.675151e+01 2.673158e+01 3.416533e+01 2.927248e+01 2.991298e+01 2.138158e+01 2.964030e+01 2.293483e+01 2.089017e+01 4.618802e+00 2.414786e+00 2.736505e+00 2.809131e+00 3.515681e+00 4.047030e+00 3.497955e+00 3.412317e+00 3.133505e+00 2.843384e+00 2.494333e+00 2.091517e+00 2.999690e-01 3.541565e-01 4.380111e-01 5.087311e-01 5.829113e-01 7.483627e-01 6.266243e-01 6.822931e-01 4.819794e-01 6.609005e-01 5.202035e-01 4.846984e-01
<GCONST> 1.100603e+02
<MIXTURE> 69 2.156561e-03
<MEAN> 36
 -3.455050e+00 -4.954699e-01 -3.223487e-01 1.983726e+00 1.652381e+00 3.814236e-01 -2.433285e+00 5.687531e-01 1.437056e+00 3.489041e+00 7.887667e+00 2.594701e+00 -1.542496e-03 8.288720e-02 1.767999e-01 3.117452e-01 2.871731e-01 2.232991e-01 2.037079e-01 2.282147e-01 3.706992e-01 2.937944e-01 6.961560e-02 -5.694804e-02 1.070384e-02 -6.444328e-02 -9.883533e-02 -1.800100e-01 -2.048512e-01 9.901291e-02 3.214239e-01 -2.570020e-04 -1.490422e-01 -4.879063e-01 -1.070339e+00 -3.656608e-01
<VARIANCE> 36
 1.187852e+01 7.841092e+00 8.921756e+00 1.139353e+01 1.303107e+01 1.556845e+01 1.595922e+01 1.465705e+01 1.486861e+01 1.566645e+01 1.072178e+01 1.093453e+01 2.352937e-01 4.537205e-01 7.248592e-01 1.081318e+00 1.348789e+00 1.642308e+00 1.982728e+00 2.077999e+00 2.151437e+00 2.051083e+00 1.997407e+00 1.812172e+00 4.941632e-02 8.165393e-02 1.208814e-01 1.529599e-01 2.261206e-01 2.738253e-01 2.979351e-01 2.839598e-01 2.929713e-01 3.157863e-01 2.221649e-01 2.288160e-01
<GCONST> 7.868845e+01
<MIXTURE> 70 9.787302e-04
<MEAN> 36
 -7.061110e+00 -2.257801e+00 -2.945216e+00 5.914506e-01 -7.035524e-01 -6.438448e-02 -1.449291e+00 1.824819e-01 -1.283435e-01 1.633680e+00 3.948841e+00 3.644579e+00 1.349874e+00 4.907174e-01 7.069215e-01 4.344499e-01 4.378852e-01 2.110641e-01 6.094080e-02 -2.695742e-02 1.403483e-01 -1.518484e-02 -1.953390e-01 -1.595898e-01 8.555790e-01 2.532839e-01 3.269505e-01 1.647422e-01 2.709323e-01 2.151220e-01 2.195582e-01 9.726583e-02 5.768086e-02 -2.097656e-01 -5.313370e-01 -5.200350e-01
<VARIANCE> 36
 5.199387e+00 3.535393e+00 4.270020e+00 6.327952e+00 4.799599e+00 6.689215e+00 8.222617e+00 8.298818e+00 9.595355e+00 9.325923e+00 8.767839e+00 8.331975e+00 2.291839e+00 3.542511e-01 4.426213e-01 1.049723e+00 7.960549e-01 1.113505e+00 1.891477e+00 1.691481e+00 1.411927e+00 1.388322e+00 1.506827e+00 1.263170e+00 2.954991e-01 6.217109e-02 8.843478e-02 1.408745e-01 1.077713e-01 1.545326e-01 1.999091e-01 1.895360e-01 2.062440e-01 2.021193e-01 1.941373e-01 1.744529e-01
<GCONST> 6.791961e+01
<MIXTURE> 71 1.782762e-03
<MEAN> 36
 -2.148372e+00 1.407684e-01 8.184050e-01 3.151658e+00 2.169397e+00 6.217605e-01 1.690289e+00 7.608948e+00 2.624359e+00 -2.033084e+00 -2.406149e+00 -2.401671e+00 -4.076124e-02 1.154972e-01 2.241300e-01 4.087410e-01 4.685563e-01 4.108531e-01 3.277872e-01 2.054696e-01 1.390663e-01 1.473567e-02 -1.447895e-01 -1.391634e-01 -2.857501e-02 -1.166243e-01 -2.039258e-01 -3.246839e-01 -2.361721e-01 5.501904e-02 -2.527190e-01 -1.025589e+00 -3.618992e-01 3.083566e-01 3.979954e-01 3.398096e-01
<VARIANCE> 36
 1.443828e+01 1.017052e+01 1.179978e+01 1.417471e+01 1.493692e+01 1.428246e+01 1.898676e+01 1.242426e+01 1.696226e+01 1.380294e+01 1.116090e+01 1.333975e+01 3.516755e-01 6.161356e-01 9.199480e-01 1.222125e+00 1.636939e+00 1.957193e+00 2.185166e+00 2.372099e+00 2.317392e+00 2.254040e+00 2.130416e+00 1.888770e+00 5.837700e-02 1.010488e-01 1.613582e-01 2.003064e-01 2.508350e-01 2.481698e-01 3.401898e-01 2.371581e-01 3.315086e-01 2.723510e-01 2.224041e-01 2.767916e-01
<GCONST> 8.294940e+01
<MIXTURE> 72 1.798275e-03
<MEAN> 36
 -2.922018e+00 -3.214268e-01 1.203444e+00 4.301468e+00 3.316207e+00 1.721019e+00 -3.157723e+00 -2.932890e+00 -2.104695e+00 5.886533e-01 7.789929e-01 -1.673659e+00 1.961456e-02 8.958758e-02 2.425664e-01 4.171742e-01 5.294644e-01 5.871178e-01 5.992343e-01 4.237182e-01 4.628515e-01 1.252931e-01 -2.652199e-01 -2.270523e-01 -2.950383e-02 -8.481807e-02 -3.081957e-01 -4.664889e-01 -4.196938e-01 -8.116484e-02 4.574467e-01 5.158037e-01 2.855375e-01 -1.403332e-01 -9.788648e-02 2.440587e-01
<VARIANCE> 36
 1.233705e+01 8.280998e+00 8.523083e+00 9.992701e+00 1.094530e+01 1.256761e+01 1.470288e+01 1.092846e+01 1.191235e+01 9.991738e+00 8.800905e+00 6.987477e+00 2.819500e-01 4.342633e-01 6.359568e-01 8.941733e-01 1.201346e+00 1.465823e+00 1.782429e+00 1.862510e+00 2.312738e+00 1.922178e+00 1.772828e+00 1.492409e+00 4.972459e-02 8.556712e-02 1.165201e-01 1.486543e-01 1.922912e-01 2.280538e-01 2.764351e-01 2.054954e-01 2.351814e-01 2.006337e-01 1.944823e-01 1.455519e-01
<GCONST> 7.357368e+01
<MIXTURE> 73 1.086035e-03
<MEAN> 36
 -4.996848e+00 -1.732589e+00 -3.035988e+00 -7.231900e-01 7.510496e-01 -4.372535e-01 -4.857151e+00 -1.665639e+00 -4.224542e+00 -5.917646e-01 -1.951399e+00 1.493298e+00 5.186655e-02 1.876312e-01 8.432404e-01 1.514476e+00 6.466640e-01 -2.099069e-01 1.980883e-01 -7.540344e-01 4.388921e-01 3.807382e-01 3.318489e-01 4.168937e-02 -5.395631e-02 -2.036911e-03 1.308903e-01 2.939882e-01 -3.329524e-02 2.486384e-01 8.294370e-01 3.784580e-01 5.216546e-01 -6.808650e-02 3.700452e-01 -2.230337e-01
<VARIANCE> 36
 7.470390e+00 3.955891e+00 5.595163e+00 7.747421e+00 6.749239e+00 9.732409e+00 1.096713e+01 8.616778e+00 1.093961e+01 1.098476e+01 1.076613e+01 8.989681e+00 2.364069e-01 3.265834e-01 4.503452e-01 1.426882e+00 1.077873e+00 1.647303e+00 3.271953e+00 2.189420e+00 2.001220e+00 1.382067e+00 2.718633e+00 1.723239e+00 5.105265e-02 4.420063e-02 7.671372e-02 1.678149e-01 1.235320e-01 1.844839e-01 3.207342e-01 1.652116e-01 2.093910e-01 1.852715e-01 2.579333e-01 2.181306e-01
<GCONST> 7.022235e+01
<MIXTURE> 74 2.033809e-03
<MEAN> 36
 4.899606e+00 3.532504e+00 6.665655e-01 3.571180e+00 1.098552e+01 4.364432e+00 -1.474941e+00 -4.714192e+00 -3.215919e+00 2.885383e+00 1.185421e+00 -4.893295e-01 -3.598766e-01 3.479105e-01 4.220463e-01 3.841875e-01 6.810060e-01 8.483025e-01 6.351793e-01 -1.674784e-01 -3.035289e-01 -1.022384e-01 1.476613e-01 8.544552e-02 -1.097558e-01 -3.124270e-01 -1.875277e-01 -3.366515e-01 -1.163346e+00 -8.336629e-01 -8.050654e-03 6.699203e-01 4.370381e-01 -3.049716e-01 -2.277495e-01 7.268203e-02
<VARIANCE> 36
 1.168388e+01 1.758368e+01 2.501620e+01 2.826765e+01 3.580986e+01 3.094958e+01 4.157075e+01 3.101573e+01 3.277680e+01 2.767906e+01 2.468645e+01 2.258648e+01 7.344087e-01 1.018873e+00 2.006690e+00 2.121758e+00 3.752261e+00 3.149247e+00 3.452961e+00 3.000939e+00 2.879229e+00 2.622730e+00 2.295882e+00 1.965631e+00 1.564666e-01 2.081357e-01 3.889614e-01 3.958658e-01 4.800545e-01 4.822881e-01 6.449502e-01 4.955960e-01 5.909343e-01 5.173668e-01 4.439752e-01 4.286519e-01
<GCONST> 1.041083e+02
<MIXTURE> 75 1.873017e-03
<MEAN> 36
 -3.762470e+00 -1.651305e+00 -2.609372e+00 -3.165663e-01 -2.643611e-01 2.958955e-01 3.400827e-01 1.088384e+00 6.108087e-01 4.248487e+00 1.285569e+00 -2.822389e+00 1.666715e-02 1.475138e-01 3.394669e-01 5.566691e-01 5.970955e-01 5.322842e-01 4.895823e-01 2.917964e-01 2.168373e-01 2.645328e-02 -2.320856e-01 -3.006207e-01 -5.076394e-03 5.799782e-02 1.769801e-01 1.576939e-01 5.990235e-02 9.209058e-02 -1.093643e-01 -1.000358e-01 -8.213874e-02 -6.586093e-01 -1.619590e-01 4.217227e-01
<VARIANCE> 36
 1.027161e+01 6.326524e+00 6.999251e+00 8.650653e+00 9.378873e+00 9.388789e+00 1.060568e+01 1.081024e+01 1.111381e+01 8.206333e+00 1.086067e+01 5.708600e+00 2.417048e-01 4.801821e-01 7.220738e-01 9.965477e-01 1.297554e+00 1.614384e+00 1.878435e+00 2.101655e+00 2.049689e+00 2.062090e+00 1.963493e+00 1.826193e+00 4.697215e-02 7.284357e-02 1.084023e-01 1.463833e-01 1.770836e-01 1.784017e-01 2.134243e-01 2.360590e-01 2.377186e-01 1.729538e-01 2.316943e-01 1.332889e-01
<GCONST> 7.171645e+01
<MIXTURE> 76 1.309661e-03
<MEAN> 36
 1.005690e+01 6.729084e+00 -6.440974e+00 -3.955728e+00 2.239135e+00 3.979332e+00 6.835274e-01 -4.420115e+00 -7.362014e+00 -3.702226e+00 -8.708597e-01 1.638705e+00 -1.037920e-01 7.534150e-01 9.295214e-01 2.780098e-04 -6.727892e-01 2.860740e-01 1.474805e+00 1.206157e+00 1.026645e-01 -1.059813e+00 -8.285947e-01 -1.515965e-01 -3.501401e-01 -4.836651e-01 1.513107e-01 4.107249e-01 1.606096e-02 -6.773358e-01 -5.865515e-01 2.695430e-01 8.042728e-01 5.813660e-01 1.655607e-02 -2.860487e-01
<VARIANCE> 36
 7.495018e+00 1.434663e+01 2.499186e+01 2.327301e+01 2.860469e+01 2.557998e+01 2.802686e+01 3.119369e+01 2.454821e+01 2.339001e+01 2.511499e+01 2.123851e+01 6.685175e-01 1.307351e+00 1.935584e+00 2.279870e+00 2.799278e+00 2.630218e+00 2.985232e+00 3.015723e+00 3.170754e+00 2.818234e+00 2.549025e+00 2.254900e+00 1.112657e-01 1.928913e-01 2.877426e-01 3.088681e-01 4.144853e-01 5.095140e-01 5.127881e-01 5.395004e-01 5.034518e-01 4.522055e-01 4.787555e-01 3.982281e-01
<GCONST> 1.004516e+02
<MIXTURE> 77 2.059740e-03
<MEAN> 36
 -5.882621e+00 -1.527250e+00 -2.820049e+00 -9.814788e-01 -1.681950e+00 -4.238107e-01 -2.498275e+00 -2.158861e+00 -3.119190e+00 -4.197256e+00 -5.191607e+00 -4.879634e+00 2.991015e-01 1.739781e-01 2.207409e-01 1.371599e-01 1.842105e-01 -8.902447e-04 1.144014e-01 9.566525e-02 2.751737e-01 3.408487e-01 2.903412e-01 1.848760e-01 5.621763e-01 1.960698e-01 3.444264e-01 2.152427e-01 2.239878e-01 1.197473e-01 3.306133e-01 2.999944e-01 4.573677e-01 5.985703e-01 7.818229e-01 7.346479e-01
<VARIANCE> 36
 1.432424e+01 1.189427e+01 1.291704e+01 1.479880e+01 1.429744e+01 1.764254e+01 1.641021e+01 1.661924e+01 1.540495e+01 1.772512e+01 1.211226e+01 1.155064e+01 2.556478e+00 1.402637e+00 1.730619e+00 2.132802e+00 2.402524e+00 2.737621e+00 2.927954e+00 2.851262e+00 2.684765e+00 2.492649e+00 2.342293e+00 1.953501e+00 3.743851e-01 2.312348e-01 2.838511e-01 3.101309e-01 3.185962e-01 4.033809e-01 3.854595e-01 3.868038e-01 3.574520e-01 3.989859e-01 2.732749e-01 2.635568e-01
<GCONST> 9.484437e+01
<MIXTURE> 78 1.774321e-03
<MEAN> 36
 1.859685e+00 6.526874e+00 1.098105e+01 -2.334189e+00 -1.266196e+00 1.478547e+00 -8.184780e-02 -8.986146e+00 1.708760e+00 -4.369479e-01 -6.248302e+00 2.869827e+00 5.079170e-01 -6.033038e-01 -3.216238e-01 1.717857e+00 -3.495543e-01 -2.831743e-01 1.751922e+00 -5.669648e-02 -8.774836e-01 1.525903e+00 -2.976096e-01 -5.891577e-01 -1.176562e-01 2.292200e-02 -4.194571e-01 -7.424843e-03 2.251031e-01 -3.204446e-01 -2.063610e-01 6.607978e-01 -3.005463e-01 -9.343211e-02 6.897106e-01 -2.771344e-01
<VARIANCE> 36
 9.457669e+00 1.264215e+01 1.688085e+01 2.151516e+01 2.882019e+01 2.214369e+01 2.716112e+01 3.168120e+01 2.833385e+01 3.024034e+01 2.418043e+01 2.002039e+01 4.253231e-01 9.846494e-01 1.304279e+00 2.305721e+00 3.055703e+00 2.674904e+00 2.726509e+00 3.271003e+00 2.871483e+00 2.565789e+00 2.646302e+00 2.279903e+00 7.809465e-02 1.405031e-01 1.930349e-01 3.056909e-01 3.775133e-01 3.302747e-01 4.119192e-01 4.389000e-01 3.742611e-01 4.678909e-01 3.689904e-01 3.396091e-01
<GCONST> 9.635405e+01
<MIXTURE> 79 1.553227e-03
<MEAN> 36
 -6.767647e+00 -2.464688e+00 -3.153693e+00 1.778291e+00 2.735195e+00 2.948009e+00 2.159337e+00 3.978878e+00 2.281308e+00 8.655012e-01 3.577964e+00 2.045106e+00 3.596547e-01 1.902811e-01 2.773486e-01 1.631718e-01 2.089171e-01 1.483712e-01 2.201085e-01 3.416405e-01 3.752127e-01 2.791275e-01 -1.261029e-01 -2.072544e-01 6.565809e-01 3.086824e-01 3.455274e-01 -8.072457e-02 -3.480588e-01 -2.887702e-01 -3.389956e-01 -5.229881e-01 -3.313043e-01 -1.212157e-01 -4.774524e-01 -3.105541e-01
<VARIANCE> 36
 7.072102e+00 5.278605e+00 6.124897e+00 9.151655e+00 1.274679e+01 1.063657e+01 1.130704e+01 1.197500e+01 1.232805e+01 1.386154e+01 9.767269e+00 8.336098e+00 1.839630e+00 8.010017e-01 9.984856e-01 1.671112e+00 1.891425e+00 2.069449e+00 2.387557e+00 2.715371e+00 2.537226e+00 2.746475e+00 2.058545e+00 1.824148e+00 2.743232e-01 1.105942e-01 1.394086e-01 1.941139e-01 2.885847e-01 2.499605e-01 2.679606e-01 2.688581e-01 2.703309e-01 3.051293e-01 2.171981e-01 1.783419e-01
<GCONST> 8.245527e+01
<MIXTURE> 80 1.553417e-03
<MEAN> 36
 3.063476e+00 1.179461e+00 5.374908e+00 -3.980748e+00 -9.296400e+00 -4.687577e+00 2.239571e+00 -9.664353e+00 3.280654e-01 4.611502e+00 -1.957904e+00 1.409577e+00 2.195318e-01 6.710452e-01 6.859979e-01 1.569137e+00 1.130230e+00 4.398774e-02 1.691638e-01 -2.273458e-01 -1.248337e+00 -5.671342e-01 -1.030669e-01 -2.976156e-01 -1.140860e-01 5.298405e-02 -1.269699e-01 2.621272e-01 5.419312e-01 3.014307e-01 2.779549e-02 6.927717e-01 -6.933220e-02 -2.813393e-01 1.056118e-01 -1.276087e-01
<VARIANCE> 36
 1.092931e+01 1.343694e+01 1.404596e+01 2.203345e+01 1.887103e+01 2.533211e+01 2.435188e+01 2.302238e+01 2.950497e+01 2.020292e+01 1.463690e+01 1.413243e+01 3.728323e-01 8.297467e-01 1.044485e+00 1.468939e+00 1.667420e+00 1.995170e+00 2.272690e+00 2.681693e+00 2.220397e+00 1.958951e+00 1.834990e+00 1.561791e+00 8.686222e-02 1.332680e-01 1.644475e-01 2.650448e-01 2.866412e-01 3.023988e-01 3.180822e-01 3.439263e-01 3.451506e-01 3.052387e-01 2.370099e-01 2.353027e-01
<GCONST> 8.850916e+01
<MIXTURE> 81 1.970878e-03
<MEAN> 36
 -6.452787e-01 1.078175e+01 4.495316e+00 -1.770214e+00 7.981809e+00 -5.657104e+00 1.161074e+00 -5.393530e-01 -2.963457e+00 9.623029e-02 -5.719024e-02 -1.273058e+00 3.594731e-02 4.699622e-02 -8.951436e-03 6.443711e-02 5.733027e-02 -3.121978e-02 9.628518e-02 -4.291915e-02 1.376152e-02 2.018206e-02 -5.947177e-02 4.125962e-02 4.162260e-02 -6.372888e-02 3.798315e-02 -3.897984e-02 -6.206317e-02 1.025079e-01 -8.984361e-02 -1.538910e-02 4.927833e-02 -4.912321e-02 4.367442e-03 9.385313e-03
<VARIANCE> 36
 1.457079e+01 4.745956e+01 3.285374e+01 4.702079e+01 3.335089e+01 3.625508e+01 3.842051e+01 3.621381e+01 3.023358e+01 2.798386e+01 2.608209e+01 2.090375e+01 1.053048e-01 2.033133e-01 2.938666e-01 4.614972e-01 4.691871e-01 5.871490e-01 6.610872e-01 6.592978e-01 6.552741e-01 6.888554e-01 6.560000e-01 5.838957e-01 1.988322e-02 3.937528e-02 5.968180e-02 8.527955e-02 9.670494e-02 1.166384e-01 1.191773e-01 1.259158e-01 1.282068e-01 1.339093e-01 1.232204e-01 1.121248e-01
<GCONST> 6.824229e+01
<MIXTURE> 82 2.571696e-03
<MEAN> 36
 -2.533190e+00 1.602999e+01 7.706432e+00 -1.267862e+00 9.049932e+00 -1.172953e-01 -3.741997e+00 2.918024e+00 -3.347624e+00 -2.943733e+00 1.608091e+00 -4.811452e+00 -5.212208e-02 1.214102e-01 2.028288e-03 -5.248985e-02 2.359468e-01 -2.048600e-01 1.517844e-01 3.507369e-02 -1.105505e-01 1.184955e-01 -7.546057e-02 -3.596064e-02 1.060464e-01 -3.884223e-01 1.038760e-01 -2.166367e-01 -2.444035e-01 -2.248082e-02 -4.740033e-02 -2.935609e-01 1.368233e-01 -1.285072e-02 -1.438230e-01 3.545587e-01
<VARIANCE> 36
 1.133837e+01 1.526095e+01 1.791300e+01 2.518608e+01 2.213021e+01 3.457306e+01 2.463022e+01 2.537311e+01 2.677510e+01 2.653278e+01 2.418038e+01 1.796912e+01 2.866106e-01 5.844920e-01 8.943049e-01 1.581704e+00 1.281894e+00 1.482157e+00 1.660364e+00 1.891278e+00 1.653409e+00 2.119002e+00 1.731238e+00 1.517680e+00 5.806687e-02 1.384456e-01 1.750143e-01 2.284818e-01 2.670710e-01 3.041596e-01 2.882946e-01 3.171901e-01 3.382196e-01 3.306572e-01 3.274069e-01 2.940766e-01
<GCONST> 8.823639e+01
<MIXTURE> 83 1.208385e-03
<MEAN> 36
 8.064058e+00 1.576030e-01 -6.589822e+00 2.782889e+00 3.117367e+00 -1.117263e+01 -8.347097e+00 1.219161e+00 2.574494e+00 6.561978e-01 -4.041721e+00 1.991914e+00 -3.542386e-01 -2.347425e-01 1.001013e+00 5.849095e-01 -1.074645e+00 -1.171470e+00 1.130585e+00 1.123286e+00 -6.953419e-01 -1.066056e+00 3.236770e-01 8.502563e-01 -1.596595e-01 2.968530e-02 3.866777e-01 -1.025802e-01 -3.612678e-01 4.989618e-01 6.039732e-01 -2.354113e-01 -5.016432e-01 -4.475421e-03 4.769479e-01 -1.432766e-01
<VARIANCE> 36
 8.839794e+00 1.426074e+01 2.621264e+01 2.393895e+01 2.257128e+01 2.633675e+01 2.456035e+01 2.730024e+01 2.818425e+01 2.418509e+01 1.840973e+01 1.782436e+01 2.355832e-01 6.031684e-01 1.310110e+00 1.210330e+00 1.536598e+00 1.841723e+00 1.815665e+00 2.172600e+00 1.993955e+00 1.767100e+00 1.703460e+00 1.407832e+00 5.724834e-02 9.880074e-02 1.996662e-01 1.931395e-01 3.193966e-01 3.382201e-01 3.206043e-01 3.296793e-01 3.208703e-01 3.150372e-01 2.608364e-01 2.459182e-01
<GCONST> 8.777085e+01
<MIXTURE> 84 8.459219e-04
<MEAN> 36
 -6.898386e+00 -1.752206e+00 -2.143491e+00 1.735086e+00 1.269679e+00 2.284996e+00 6.688172e-01 1.741420e+00 2.980546e-01 -1.198960e+00 -3.023548e+00 -2.856276e+00 2.545921e+00 5.876305e-01 8.422285e-01 3.979776e-01 5.113452e-01 2.146135e-01 2.607461e-01 1.264636e-01 2.511761e-01 2.204071e-01 2.084065e-01 1.867663e-01 9.826705e-01 1.920121e-01 2.366917e-01 1.493622e-02 9.092839e-03 -9.783970e-02 -6.544112e-02 -9.667864e-02 -8.133554e-03 1.643014e-01 4.591585e-01 3.880209e-01
<VARIANCE> 36
 5.020894e+00 3.542039e+00 4.219342e+00 6.813388e+00 6.593117e+00 9.807446e+00 1.124187e+01 1.141996e+01 1.420454e+01 1.523840e+01 1.162797e+01 1.206100e+01 1.104447e+00 2.294843e-01 3.070376e-01 6.636366e-01 5.957080e-01 8.246593e-01 1.069619e+00 1.088442e+00 1.098112e+00 1.010716e+00 1.106515e+00 9.629821e-01 2.149764e-01 5.963216e-02 8.162028e-02 1.393762e-01 1.355453e-01 2.022496e-01 2.403255e-01 2.408836e-01 2.786829e-01 3.068815e-01 2.372397e-01 2.442590e-01
<GCONST> 6.780491e+01
<MIXTURE> 85 1.605713e-03
<MEAN> 36
 -9.075277e-01 2.942076e-01 -4.383774e-01 2.205610e+00 2.586447e+00 1.601411e+00 -2.879570e-01 1.987314e+00 7.846767e-02 -7.076923e-01 3.464453e+00 2.071720e-01 2.269221e-03 2.325267e-02 7.334172e-02 1.172110e-01 1.571999e-01 2.327770e-01 1.885960e-01 1.943824e-01 1.837808e-01 8.204198e-02 8.443395e-03 -1.234450e-02 -6.023524e-02 -4.619423e-02 -5.861081e-03 -8.012045e-02 -2.208896e-01 -6.095977e-02 5.308036e-02 -1.729423e-01 5.237757e-02 1.683688e-01 -4.007901e-01 -2.317782e-02
<VARIANCE> 36
 1.402916e+01 6.899878e+00 6.527194e+00 8.995049e+00 8.363873e+00 1.032136e+01 8.692214e+00 1.018828e+01 1.144318e+01 9.417028e+00 7.657741e+00 7.051997e+00 1.358126e-01 2.940637e-01 4.560904e-01 6.572232e-01 9.752017e-01 1.198257e+00 1.299423e+00 1.482094e+00 1.525715e+00 1.464179e+00 1.384913e+00 1.213575e+00 2.433197e-02 5.424790e-02 7.982925e-02 1.111704e-01 1.326208e-01 1.777949e-01 1.593304e-01 1.917735e-01 2.159928e-01 1.715616e-01 1.572620e-01 1.415664e-01
<GCONST> 6.443800e+01
<MIXTURE> 86 1.749820e-03
<MEAN> 36
 6.610935e-01 -6.506136e+00 -9.114294e-01 -2.771255e+00 -5.654909e+00 2.372917e+00 5.166687e+00 2.302088e+00 -3.463441e+00 4.769610e+00 -2.790500e+00 -7.956249e-01 2.722395e-01 8.609256e-01 4.301515e-01 4.139452e-01 4.865697e-01 -6.479446e-01 -6.728985e-01 1.207904e-01 6.584656e-02 -1.019693e-01 3.321536e-01 2.296324e-01 -1.473636e-01 5.390612e-01 9.982128e-02 2.297970e-01 5.400191e-01 -2.957260e-01 -4.739923e-01 -3.307800e-01 4.242555e-01 -5.703826e-01 3.523691e-01 9.189644e-02
<VARIANCE> 36
 2.184140e+01 2.302221e+01 2.121700e+01 2.831486e+01 2.368068e+01 2.821366e+01 5.069403e+01 2.556156e+01 1.931702e+01 1.479612e+01 1.135546e+01 1.293956e+01 2.717983e+00 2.200713e+00 2.235009e+00 2.707839e+00 3.245032e+00 4.109261e+00 3.399072e+00 3.655938e+00 2.925126e+00 2.526892e+00 2.236517e+00 1.869678e+00 2.690152e-01 3.437436e-01 3.287298e-01 3.785120e-01 3.984085e-01 4.502683e-01 8.020000e-01 4.391505e-01 3.739230e-01 3.046354e-01 2.456303e-01 2.860105e-01
<GCONST> 1.031744e+02
<MIXTURE> 87 1.203028e-03
<MEAN> 36
 1.812422e+00 1.606202e+00 1.029295e+01 -3.889169e+00 -7.281751e+00 -2.611016e+00 -8.204314e-01 -5.901165e+00 -5.722873e+00 4.986100e+00 -2.601133e+00 -1.110049e+00 -9.568333e-01 1.867262e+00 1.919380e+00 -1.788456e+00 1.124133e+00 2.434759e+00 -1.207665e+00 -1.820634e+00 1.340173e+00 -4.445963e-01 -1.535984e+00 5.695736e-01 1.111557e-01 1.681010e-01 -9.314514e-01 4.470407e-01 1.122460e+00 -2.206607e-01 -3.953162e-01 9.147035e-01 6.087026e-01 -8.902990e-01 2.090202e-01 2.952410e-01
<VARIANCE> 36
 1.053324e+01 1.657501e+01 2.144659e+01 2.664046e+01 2.989375e+01 3.171013e+01 3.281907e+01 3.276231e+01 2.926182e+01 2.668311e+01 2.843149e+01 2.238897e+01 7.236137e-01 1.285094e+00 2.242891e+00 3.942538e+00 2.979141e+00 3.244266e+00 4.042097e+00 3.539865e+00 3.160599e+00 3.453709e+00 2.641726e+00 2.411718e+00 1.294345e-01 2.198469e-01 3.723937e-01 4.108371e-01 5.404331e-01 5.407594e-01 6.651025e-01 6.583409e-01 5.581452e-01 4.915013e-01 5.253695e-01 4.372032e-01
<GCONST> 1.056460e+02
<MIXTURE> 88 1.028261e-03
<MEAN> 36
 6.363085e+00 -6.492712e-01 -2.538925e+00 4.800011e+00 -3.039033e+00 -1.357584e+01 -1.999014e+00 1.077914e+00 -5.464110e-01 -3.642741e+00 1.431261e-02 4.802306e+00 -4.273612e-01 6.969623e-01 2.000999e+00 7.324331e-01 -4.661892e-01 5.668427e-01 1.527293e+00 -8.543376e-01 -1.729119e+00 -3.435962e-01 6.734352e-01 -6.771240e-02 -1.481007e-01 1.301529e-01 4.945013e-03 -2.989066e-01 3.859023e-01 1.055806e+00 -7.065007e-02 -2.225256e-01 1.202871e-01 5.414763e-01 -9.022541e-02 -6.186450e-01
<VARIANCE> 36
 1.005472e+01 1.822431e+01 2.406520e+01 2.326723e+01 2.981584e+01 2.601582e+01 2.960919e+01 2.504731e+01 3.199805e+01 2.287809e+01 2.418444e+01 1.924937e+01 3.941672e-01 8.728425e-01 1.662727e+00 1.875701e+00 2.658841e+00 2.671149e+00 3.027465e+00 2.817713e+00 2.653279e+00 2.586814e+00 2.485858e+00 2.205322e+00 1.048885e-01 1.589413e-01 3.002226e-01 3.021038e-01 4.455413e-01 4.553239e-01 4.871460e-01 4.751906e-01 5.065561e-01 4.256059e-01 4.399553e-01 3.410851e-01
<GCONST> 9.852225e+01
<MIXTURE> 89 1.162581e-03
<MEAN> 36
 -1.341316e+00 1.119826e+01 1.089291e+01 -1.020027e+01 8.093403e+00 -4.036919e+00 -7.339139e+00 1.355224e-01 -5.770307e+00 -3.200651e+00 -3.986817e-01 -1.504579e+00 -2.747387e-02 1.278559e+00 6.477464e-02 1.121947e+00 2.609097e+00 -4.276218e-01 9.798304e-01 1.331431e+00 -1.586537e+00 6.499501e-01 -2.862789e-01 -1.017212e+00 1.672498e-01 -9.412260e-01 -7.566323e-01 8.043655e-01 -1.158678e+00 3.799518e-01 9.127941e-01 -2.598759e-01 8.230969e-01 5.230700e-01 -1.519955e-01 2.759003e-01
<VARIANCE> 36
 1.090729e+01 1.740303e+01 2.034431e+01 2.718776e+01 2.646668e+01 2.864298e+01 2.675085e+01 2.654013e+01 2.532342e+01 2.592560e+01 2.291285e+01 2.318041e+01 7.910348e-01 2.144576e+00 2.469353e+00 3.208758e+00 2.986393e+00 3.882311e+00 3.217501e+00 3.575510e+00 3.516607e+00 3.351029e+00 3.165749e+00 2.382191e+00 1.792545e-01 3.251544e-01 4.345552e-01 5.700189e-01 5.635128e-01 6.087872e-01 6.369681e-01 6.461827e-01 6.510924e-01 6.004017e-01 5.108976e-01 4.960639e-01
<GCONST> 1.071546e+02
<MIXTURE> 90 2.105451e-03
<MEAN> 36
 -3.209146e+00 6.306430e-01 -9.189672e-01 4.010854e-02 1.083464e-01 2.457850e+00 2.465769e+00 -2.350557e-01 -5.842920e+00 -1.415066e+00 3.384639e+00 -7.088042e-01 1.833972e-01 2.257703e-01 3.576304e-01 3.611791e-01 3.859444e-01 2.119719e-01 1.210312e-01 1.132474e-01 8.871161e-02 -2.994031e-02 -9.155189e-02 -6.860171e-02 1.524543e-01 -1.748775e-01 -7.340788e-03 1.107762e-01 1.415134e-02 -2.705628e-01 -3.835935e-01 8.027953e-02 8.713593e-01 2.042322e-01 -4.800133e-01 8.425736e-02
<VARIANCE> 36
 1.570758e+01 8.906423e+00 9.995358e+00 1.189700e+01 1.446564e+01 1.483339e+01 1.374459e+01 1.506560e+01 1.199685e+01 1.328732e+01 1.182125e+01 1.267900e+01 2.884429e+00 1.225873e+00 1.407976e+00 1.741443e+00 2.007774e+00 2.367899e+00 2.560712e+00 2.493106e+00 2.621952e+00 2.349012e+00 2.107091e+00 1.820352e+00 2.687643e-01 1.342194e-01 1.804199e-01 2.023807e-01 2.577021e-01 3.014856e-01 2.805806e-01 3.143724e-01 2.416379e-01 2.843902e-01 2.564451e-01 2.742209e-01
<GCONST> 8.845315e+01
<MIXTURE> 91 4.614106e-04
<MEAN> 36
 5.045560e+00 2.820516e+00 1.487504e+00 -8.778986e+00 2.531822e+00 1.325002e+01 -1.838673e+01 3.079511e+00 -5.495452e-01 1.069827e+01 -1.463965e+01 1.072581e+00 -1.533818e-04 2.004585e-02 -2.257193e-02 2.251557e-02 2.301052e-02 2.763361e-02 9.455116e-03 1.742978e-02 1.262378e-03 -6.287402e-03 1.797438e-02 7.109893e-03 -1.288686e-01 -1.086881e-01 -8.310723e-02 -4.426042e-02 -9.458886e-02 -1.079494e-01 1.518270e-01 -8.842544e-03 2.594439e-02 -7.179691e-02 1.009118e-01 -3.760401e-02
<VARIANCE> 36
 3.430062e+01 3.944460e+01 3.103946e+01 3.150430e+01 3.004503e+01 3.820105e+01 4.206768e+01 2.645581e+01 2.102348e+01 2.414990e+01 2.667264e+01 1.345602e+01 3.519537e+00 1.650714e+00 2.076336e+00 2.415783e+00 2.469786e+00 2.658505e+00 2.893982e+00 2.608804e+00 2.316239e+00 2.241767e+00 2.083575e+00 1.628717e+00 4.454158e-01 2.520184e-01 2.927550e-01 4.114457e-01 3.833914e-01 5.164914e-01 6.003371e-01 4.440462e-01 3.876526e-01 4.377830e-01 4.530908e-01 2.722964e-01
<GCONST> 1.054658e+02
<MIXTURE> 92 5.731503e-04
<MEAN> 36
 2.973237e+00 3.868337e-02 2.694564e+00 3.055609e+00 2.767324e+00 1.875671e+00 9.185886e-01 1.010919e+00 2.988856e-01 1.164705e-02 2.159341e-01 2.246223e-01 -0.000000e+00 -0.000000e+00 -0.000000e+00 -0.000000e+00 -0.000000e+00 -0.000000e+00 -0.000000e+00 -0.000000e+00 -0.000000e+00 -0.000000e+00 -0.000000e+00 -0.000000e+00 -0.000000e+00 -0.000000e+00 -0.000000e+00 -0.000000e+00 -0.000000e+00 -0.000000e+00 -0.000000e+00 -0.000000e+00 -0.000000e+00 -0.000000e+00 -0.000000e+00 -0.000000e+00
<VARIANCE> 36
 1.658434e-01 3.087481e-01 1.586199e-01 1.124587e-01 2.877515e-02 4.055605e-01 1.139032e-01 1.021371e-01 1.396814e-01 7.674126e-02 8.646686e-02 4.265859e-02 1.000000e-04 1.000000e-04 1.000000e-04 1.000000e-04 1.000000e-04 1.000000e-04 1.000000e-04 1.000000e-04 1.000000e-04 1.000000e-04 1.000000e-04 1.000000e-04 1.000000e-04 1.000000e-04 1.000000e-04 1.000000e-04 1.000000e-04 1.000000e-04 1.000000e-04 1.000000e-04 1.000000e-04 1.000000e-04 1.000000e-04 1.000000e-04
<GCONST> -1.809258e+02
<MIXTURE> 93 1.464967e-03
<MEAN> 36
 6.142344e+00 3.489680e-02 6.588953e-01 3.570058e+00 2.569248e+00 3.453250e+00 2.089468e-01 2.871822e+00 8.970603e-02 7.049430e-01 3.002044e-01 2.649660e-01 -0.000000e+00 -0.000000e+00 -0.000000e+00 -0.000000e+00 -0.000000e+00 -0.000000e+00 -0.000000e+00 -0.000000e+00 -0.000000e+00 -0.000000e+00 -0.000000e+00 -0.000000e+00 -0.000000e+00 -0.000000e+00 -0.000000e+00 -0.000000e+00 -0.000000e+00 -0.000000e+00 -0.000000e+00 -0.000000e+00 -0.000000e+00 -0.000000e+00 -0.000000e+00 -0.000000e+00
<VARIANCE> 36
 1.303791e+00 1.397657e+00 1.925278e+00 1.717446e+00 1.671633e+00 1.111714e+00 3.148277e-01 1.314318e-01 4.173045e-01 1.368559e-01 3.852298e-01 1.075561e-01 1.000000e-04 1.000000e-04 1.000000e-04 1.000000e-04 1.000000e-04 1.000000e-04 1.000000e-04 1.000000e-04 1.000000e-04 1.000000e-04 1.000000e-04 1.000000e-04 1.000000e-04 1.000000e-04 1.000000e-04 1.000000e-04 1.000000e-04 1.000000e-04 1.000000e-04 1.000000e-04 1.000000e-04 1.000000e-04 1.000000e-04 1.000000e-04
<GCONST> -1.617004e+02
<MIXTURE> 94 6.605322e-04
<MEAN> 36
 6.108044e+00 8.550905e-01 8.344360e-01 3.689335e+00 2.936235e+00 2.831541e+00 9.230926e-01 2.142399e+00 8.642644e-01 6.876341e-01 9.163506e-01 3.209704e-01 -3.113577e+00 -4.810705e-01 -7.746966e-01 -3.179098e-01 -5.210065e-01 -2.355893e-01 -2.970652e-01 -1.330365e-01 -2.045880e-01 -1.244055e-01 -9.989744e-02 -9.060039e-02 -8.548914e-01 -1.682351e-01 -2.438608e-01 -1.303539e-01 -1.684379e-01 -8.358481e-02 -9.500141e-02 -4.808149e-02 -7.480500e-02 -5.848991e-02 -3.890356e-02 -3.884736e-02
<VARIANCE> 36
 4.395890e+00 3.996734e+00 3.575336e+00 3.708890e+00 2.979104e+00 2.984183e+00 2.588079e+00 1.774177e+00 1.652910e+00 1.411736e+00 1.073714e+00 7.159485e-01 6.651677e-01 2.734047e-01 4.297367e-01 8.690722e-01 8.226477e-01 1.058464e+00 1.325243e+00 1.382349e+00 1.209621e+00 1.138527e+00 1.204624e+00 9.907803e-01 1.268989e-01 2.636412e-02 4.082996e-02 7.375427e-02 6.844129e-02 8.521508e-02 1.108072e-01 1.131493e-01 1.039505e-01 9.912572e-02 1.048544e-01 9.059563e-02
<GCONST> 4.392195e+01
<MIXTURE> 95 1.156513e-03
<MEAN> 36
 5.000638e+00 3.269773e-01 1.747662e+00 2.014527e+00 2.761618e+00 1.792688e+00 1.056120e+00 2.373442e+00 8.237434e-01 8.479407e-01 9.326446e-01 3.856981e-01 -0.000000e+00 -0.000000e+00 -0.000000e+00 -0.000000e+00 -0.000000e+00 -0.000000e+00 -0.000000e+00 -0.000000e+00 -0.000000e+00 -0.000000e+00 -0.000000e+00 -0.000000e+00 -0.000000e+00 -0.000000e+00 -0.000000e+00 -0.000000e+00 -0.000000e+00 -0.000000e+00 -0.000000e+00 -0.000000e+00 -0.000000e+00 -0.000000e+00 -0.000000e+00 -0.000000e+00
<VARIANCE> 36
 3.869894e-01 6.040653e-01 4.039234e-01 1.450787e+00 8.081804e-02 7.711089e-01 2.621461e-01 1.979410e-01 1.069635e-01 1.210307e-01 3.716327e-02 4.212730e-02 1.000000e-04 1.000000e-04 1.000000e-04 1.000000e-04 1.000000e-04 1.000000e-04 1.000000e-04 1.000000e-04 1.000000e-04 1.000000e-04 1.000000e-04 1.000000e-04 1.000000e-04 1.000000e-04 1.000000e-04 1.000000e-04 1.000000e-04 1.000000e-04 1.000000e-04 1.000000e-04 1.000000e-04 1.000000e-04 1.000000e-04 1.000000e-04
<GCONST> -1.734131e+02
<MIXTURE> 96 1.235599e-03
<MEAN> 36
 4.862750e+00 9.451510e-01 1.189821e+00 2.725791e+00 2.636521e+00 2.298600e+00 8.044183e-01 1.324864e+00 1.097675e+00 -2.518940e-01 1.028517e+00 6.608357e-02 -4.593363e-37 -1.202739e-36 -2.083446e-36 4.653383e-36 2.809191e-36 2.099927e-35 -7.966279e-36 -3.422470e-39 4.064259e-35 9.142375e-35 1.332694e-36 -1.737269e-35 -4.063437e-33 -2.100743e-33 -2.619353e-33 -5.004140e-35 -4.328520e-33 8.839343e-35 4.428368e-36 6.358607e-34 -7.950898e-37 9.316583e-34 -4.907546e-34 6.274136e-37
<VARIANCE> 36
 9.570191e-01 3.443306e-01 3.709678e-01 7.218488e-01 4.150747e-01 1.240667e-01 2.119004e-01 3.661215e-02 1.044253e-01 6.123161e-02 6.165915e-02 8.840691e-02 1.000000e-04 1.000000e-04 1.000000e-04 1.000000e-04 1.000000e-04 1.000000e-04 1.000000e-04 1.000000e-04 1.000000e-04 1.000000e-04 1.000000e-04 1.000000e-04 1.000000e-04 1.000000e-04 1.000000e-04 1.000000e-04 1.000000e-04 1.000000e-04 1.000000e-04 1.000000e-04 1.000000e-04 1.000000e-04 1.000000e-04 1.000000e-04
<GCONST> -1.754018e+02
<MIXTURE> 97 1.065203e-03
<MEAN> 36
 5.780648e+00 7.120934e-01 1.631618e+00 2.258556e+00 2.679502e+00 2.079473e+00 1.116612e+00 1.594134e+00 7.362153e-01 4.970070e-01 6.725107e-01 2.513654e-01 2.704313e+00 3.417237e-01 6.992056e-01 2.545978e-01 4.719197e-01 2.641032e-01 3.862219e-01 2.501947e-01 2.017295e-01 8.425783e-02 1.869033e-01 6.794368e-02 -8.915962e-01 -1.489142e-01 -2.520723e-01 -1.148610e-01 -1.814819e-01 -1.078580e-01 -1.474945e-01 -9.657513e-02 -8.578804e-02 -5.161246e-02 -5.618875e-02 -2.751814e-02
<VARIANCE> 36
 3.067503e+00 1.225601e+00 7.321873e-01 8.122146e-01 4.834161e-01 5.666667e-01 4.633675e-01 4.162343e-01 1.934593e-01 1.528128e-01 1.873730e-01 8.500701e-02 7.840104e-01 5.510685e-01 7.964145e-01 1.284362e+00 1.225220e+00 1.409557e+00 1.563754e+00 1.477766e+00 1.292193e+00 1.133240e+00 1.047013e+00 8.242611e-01 1.373812e-01 4.284186e-02 5.996482e-02 9.404562e-02 9.464184e-02 1.126325e-01 1.302170e-01 1.269877e-01 1.192242e-01 1.067824e-01 1.037556e-01 8.577721e-02
<GCONST> 2.912602e+01
<MIXTURE> 98 6.900444e-04
<MEAN> 36
